Date,nasdaq100,world_bond,us_bond,reits,emerg_equity,commodity
9/27/2001,-0.033848823,0.517559724,0.546862428,0.045773978,-0.069657585,-0.006689722
9/28/2001,-0.03462176,0.518256112,0.547430216,0.046584294,-0.070879087,-0.006769776
10/1/2001,-0.034040847,0.517644165,0.547055433,0.046474807,-0.070421562,-0.006711996
10/2/2001,-0.034196628,0.517436536,0.547024393,0.046051583,-0.069697198,-0.006618686
10/3/2001,-0.036808914,0.518775836,0.548604135,0.045424128,-0.069439944,-0.006555241
10/4/2001,-0.037184841,0.519413125,0.549315734,0.046013872,-0.070885862,-0.006672028
10/5/2001,-0.037522202,0.519832375,0.549592861,0.045839926,-0.071150685,-0.006592274
10/9/2001,-0.036757954,0.519980133,0.548930151,0.04609556,-0.07163906,-0.00660883
10/10/2001,-0.038571901,0.521054092,0.550302807,0.046476587,-0.07261876,-0.006642825
10/11/2001,-0.041247082,0.523862357,0.552027226,0.047151486,-0.075005309,-0.006788678
10/12/2001,-0.04133254,0.523568138,0.551936268,0.046992739,-0.07456584,-0.006598766
10/15/2001,-0.040752008,0.522424867,0.551692042,0.04713226,-0.074001005,-0.006496156
10/16/2001,-0.04152109,0.523084749,0.552997671,0.046685649,-0.074727131,-0.006519848
10/17/2001,-0.038692492,0.521751471,0.552275937,0.046283714,-0.07516763,-0.006451
10/18/2001,-0.039116218,0.521818889,0.552077514,0.045853256,-0.07426095,-0.00637249
10/19/2001,-0.03969397,0.522860769,0.552328609,0.045606964,-0.074579312,-0.00652306
10/22/2001,-0.04078509,0.523920593,0.553327058,0.045061767,-0.074998918,-0.006525409
10/23/2001,-0.040846331,0.524425594,0.553396098,0.045072819,-0.075582587,-0.006465594
10/24/2001,-0.042044968,0.525374027,0.555132414,0.044650625,-0.076536178,-0.00657592
10/25/2001,-0.043598732,0.525966666,0.555834118,0.044794606,-0.076471642,-0.006525015
10/26/2001,-0.042865418,0.525711871,0.555763294,0.044758897,-0.076833404,-0.00653524
10/29/2001,-0.040240695,0.524062901,0.554272958,0.044707529,-0.076251515,-0.006551178
10/30/2001,-0.039108992,0.522620443,0.552942316,0.04447066,-0.074464006,-0.006460422
10/31/2001,-0.039647594,0.521141917,0.554750159,0.044723284,-0.074597069,-0.006370696
11/1/2001,-0.041346734,0.521745757,0.555359189,0.045455018,-0.074962605,-0.006250625
11/2/2001,-0.04154118,0.523805492,0.554536427,0.045170711,-0.075749199,-0.006222251
11/5/2001,-0.043120167,0.524676362,0.556513134,0.045247496,-0.077179878,-0.006136947
11/6/2001,-0.044330106,0.524481164,0.557480808,0.045838786,-0.077375064,-0.006095588
11/7/2001,-0.044242436,0.523986029,0.55785743,0.045512846,-0.077004869,-0.006109
11/8/2001,-0.043967929,0.524904344,0.557780569,0.045822207,-0.078232905,-0.006306287
11/9/2001,-0.044174006,0.525565219,0.558123147,0.04565274,-0.078690659,-0.006476441
11/13/2001,-0.046235305,0.526667612,0.559412158,0.046494092,-0.079932161,-0.006406396
11/14/2001,-0.046579712,0.527964129,0.559323519,0.046975633,-0.081538093,-0.006145475
11/15/2001,-0.04679305,0.530021258,0.55804734,0.047689938,-0.083114663,-0.005850823
11/16/2001,-0.046967589,0.53152781,0.557035164,0.047890981,-0.083502266,-0.005984099
11/19/2001,-0.047927614,0.531035144,0.5597816,0.0478893,-0.084768199,-0.006010231
11/20/2001,-0.045842626,0.53078836,0.557182245,0.047606511,-0.083614014,-0.006120477
11/21/2001,-0.046059468,0.531552199,0.55658244,0.047947407,-0.083913218,-0.00610936
11/23/2001,-0.046932354,0.533133937,0.557135455,0.04833494,-0.085516328,-0.006155651
11/26/2001,-0.048291269,0.534692861,0.558606565,0.048307036,-0.087240054,-0.006075139
11/27/2001,-0.048008981,0.532811653,0.560095345,0.048208206,-0.086906561,-0.006199662
11/28/2001,-0.046183972,0.531559765,0.557196355,0.048060489,-0.084556422,-0.006076214
11/29/2001,-0.04724398,0.529823498,0.558864085,0.048179661,-0.083653498,-0.005969766
11/30/2001,-0.047104379,0.53033724,0.558788423,0.048066475,-0.083960412,-0.006127347
12/3/2001,-0.046236543,0.530389656,0.559292095,0.047786297,-0.085047534,-0.006183971
12/4/2001,-0.04817831,0.530879021,0.560951516,0.048409714,-0.085971666,-0.006090275
12/5/2001,-0.05128823,0.535246273,0.56241856,0.049295295,-0.089545696,-0.006126202
12/6/2001,-0.05142174,0.536401101,0.562567927,0.049781786,-0.091323959,-0.006005115
12/7/2001,-0.050231766,0.537223186,0.561203032,0.050022157,-0.092138214,-0.006078395
12/10/2001,-0.049221529,0.536351715,0.560259648,0.049488383,-0.090901178,-0.005977039
12/11/2001,-0.0495647,0.535823905,0.560264381,0.049591616,-0.090175855,-0.005939346
12/12/2001,-0.049735395,0.536026865,0.561623702,0.049130689,-0.091109339,-0.005936522
12/13/2001,-0.047655201,0.535391276,0.559002125,0.048725336,-0.089552664,-0.005910872
12/14/2001,-0.047846548,0.53603698,0.558001657,0.049123675,-0.089212671,-0.006103092
12/17/2001,-0.049034016,0.536884955,0.55815858,0.049553538,-0.089462373,-0.006100685
12/18/2001,-0.049395192,0.536031758,0.559044619,0.049503389,-0.089093955,-0.006090618
12/19/2001,-0.048364526,0.534805078,0.559268875,0.04906268,-0.088674942,-0.006097164
12/20/2001,-0.046124454,0.533937028,0.558044092,0.048735944,-0.088581509,-0.006011101
12/21/2001,-0.046734267,0.533745494,0.557774771,0.049055786,-0.087745711,-0.006096074
12/24/2001,-0.046761528,0.534437159,0.557500322,0.049287334,-0.088349477,-0.006113809
12/27/2001,-0.04773126,0.534515611,0.559761733,0.049597383,-0.089883962,-0.006259505
12/28/2001,-0.048270313,0.535038669,0.560672551,0.049880118,-0.091078438,-0.006242588
12/31/2001,-0.046786584,0.533339448,0.561364076,0.04959335,-0.091407149,-0.00610314
1/2/2002,0.016657049,0.358454046,0.340816653,0.272761897,0.045122436,-0.033812081
1/3/2002,0.01714245,0.356892,0.339890632,0.273684262,0.045469052,-0.033078397
1/4/2002,0.017255948,0.356825074,0.340330802,0.273280009,0.046434004,-0.034125836
1/7/2002,0.016962142,0.357046368,0.341465538,0.27181156,0.046767726,-0.034053334
1/8/2002,0.017127322,0.356928042,0.341352887,0.272038753,0.046418151,-0.033865156
1/9/2002,0.016998849,0.356571232,0.341739116,0.271312338,0.046427095,-0.033048629
1/10/2002,0.01701532,0.356643291,0.343095373,0.270690509,0.045684551,-0.033129044
1/11/2002,0.01676572,0.356359473,0.344146048,0.27014857,0.045314952,-0.032734763
1/14/2002,0.016383275,0.355619815,0.342780611,0.272013608,0.04509018,-0.031887489
1/15/2002,0.016497185,0.355791282,0.343679195,0.271349714,0.044713282,-0.032030658
1/16/2002,0.01598749,0.357206109,0.344424098,0.270380903,0.04435622,-0.03235482
1/17/2002,0.016403521,0.35631493,0.342532804,0.271629227,0.044593521,-0.031474003
1/18/2002,0.015871753,0.356667818,0.343917313,0.270351761,0.044625484,-0.031434129
1/22/2002,0,0.364525973,0.346589816,0.277382267,0.045886774,-0.03438483
1/23/2002,0,0.365156661,0.345628301,0.277748753,0.046313669,-0.034847384
1/24/2002,0,0.365032624,0.345896044,0.277580047,0.046593653,-0.035102368
1/25/2002,0,0.364716632,0.346136233,0.277552157,0.046956611,-0.035361633
1/28/2002,0,0.364430677,0.346044369,0.277596101,0.047079079,-0.035150226
1/29/2002,0,0.36432968,0.34712808,0.276539496,0.04677542,-0.034772677
1/30/2002,0,0.363825849,0.346606959,0.277783394,0.046031427,-0.034247629
1/31/2002,0,0.364230399,0.346058081,0.277762408,0.046723036,-0.034773925
2/1/2002,0,0.364320346,0.346820001,0.277883964,0.046631352,-0.035655663
2/4/2002,0,0.364217944,0.347025686,0.277717785,0.046283829,-0.035245245
2/5/2002,0,0.364550561,0.346912926,0.27737934,0.046368365,-0.035211192
2/6/2002,0,0.364988546,0.3468557,0.276467299,0.046635399,-0.034946944
2/7/2002,0,0.364860293,0.347460933,0.276328717,0.046286327,-0.03493627
2/8/2002,0,0.364754442,0.347777228,0.276640886,0.046291381,-0.035463936
2/11/2002,0,0.364364548,0.347336003,0.278505238,0.046171608,-0.036377397
2/12/2002,0,0.364668668,0.347077864,0.277841478,0.046418709,-0.03600672
2/13/2002,0,0.36398858,0.346621829,0.278944539,0.046687883,-0.036242831
2/14/2002,0,0.363388808,0.346551208,0.278495731,0.047586926,-0.036022674
2/15/2002,0,0.362840052,0.346606585,0.279109539,0.047376748,-0.035932923
2/19/2002,0,0.363253005,0.347038148,0.278387442,0.046941499,-0.035620094
2/20/2002,0,0.362360771,0.346209122,0.280127335,0.046310404,-0.035007632
2/21/2002,0,0.363618891,0.347550482,0.277980884,0.046437319,-0.035587576
2/22/2002,0,0.362388086,0.346491101,0.280384327,0.046190354,-0.035453869
2/25/2002,0,0.361945735,0.346199324,0.280279228,0.046280285,-0.034704573
2/26/2002,0,0.362180162,0.345862625,0.280884246,0.046551989,-0.035479022
2/27/2002,0,0.361514839,0.34653858,0.280234109,0.04728151,-0.035569038
2/28/2002,0,0.362280341,0.346673329,0.279955505,0.047038272,-0.035947446
3/1/2002,0,0.361664416,0.344833079,0.282633247,0.047538247,-0.03666899
3/4/2002,0,0.360191516,0.34331216,0.284750418,0.048432082,-0.036686176
3/5/2002,0,0.358469589,0.342110665,0.288112156,0.048496078,-0.037188488
3/6/2002,0,0.357912766,0.34143918,0.289275264,0.048663637,-0.037290847
3/7/2002,0,0.358992593,0.340569548,0.29001345,0.048714539,-0.03829013
3/8/2002,0,0.359282336,0.339839694,0.290582046,0.048779721,-0.038483797
3/11/2002,0,0.36016662,0.340699548,0.289312714,0.049154861,-0.039333743
3/12/2002,0,0.36031737,0.34083667,0.288871389,0.049158979,-0.039184408
3/13/2002,0,0.360195191,0.341261629,0.288617152,0.048984817,-0.039058789
3/14/2002,0,0.359755515,0.338996964,0.29165865,0.048946293,-0.039357422
3/15/2002,0,0.359207644,0.339128339,0.292324599,0.048774977,-0.039435559
3/18/2002,0,0.3589472,0.339305079,0.292824633,0.048973237,-0.040050149
3/19/2002,0,0.358691248,0.338884742,0.2931977,0.049113968,-0.039887658
3/20/2002,0,0.359203076,0.338380566,0.292731954,0.04925527,-0.039570865
3/21/2002,0,0.358247629,0.338045361,0.294819775,0.049099957,-0.040212723
3/22/2002,0,0.358130519,0.337829724,0.294557839,0.049279367,-0.039797449
3/25/2002,0,0.358489929,0.33841447,0.293813233,0.048915827,-0.03963346
3/26/2002,0,0.357887066,0.33848557,0.294579741,0.048850761,-0.039803138
3/27/2002,0,0.357627357,0.338127294,0.295323101,0.04904499,-0.040122741
3/28/2002,0,0.358284385,0.337971926,0.294899596,0.049233062,-0.040388968
4/2/2002,0,0.357855074,0.33880991,0.295945119,0.049492149,-0.042102251
4/3/2002,0,0.35784961,0.33946159,0.294823668,0.049365166,-0.041500033
4/4/2002,0,0.357439286,0.338500678,0.295369688,0.04911738,-0.040427032
4/5/2002,-0.011035382,-0.27154859,0.94379109,0.190128545,0.199054974,-0.050390638
4/8/2002,-0.011178609,-0.271884572,0.944078518,0.192180172,0.19770988,-0.05090539
4/9/2002,-0.010751386,-0.270720377,0.941896695,0.193120595,0.196313857,-0.049859384
4/10/2002,-0.010874213,-0.270301177,0.940089731,0.195003325,0.195889357,-0.049807023
4/11/2002,-0.010548896,-0.270261366,0.939487636,0.193713628,0.195905754,-0.048296757
4/12/2002,-0.01068984,-0.268446821,0.934736472,0.195301409,0.195376489,-0.046277708
4/15/2002,-0.01072293,-0.268992626,0.937592121,0.193229547,0.196752389,-0.0478585
4/16/2002,-0.011198995,-0.26891414,0.938376778,0.191402369,0.198560622,-0.048226634
4/17/2002,-0.011130056,-0.26929518,0.938616951,0.188806464,0.20253473,-0.049532909
4/18/2002,-0.011051006,-0.268761481,0.938149506,0.18899763,0.202280066,-0.049614714
4/19/2002,-0.010979408,-0.269251895,0.94014394,0.187700979,0.202188421,-0.049802038
4/22/2002,-0.010708179,-0.269823737,0.941968377,0.185960165,0.202490283,-0.04988691
4/23/2002,-0.010515733,-0.270252553,0.943927656,0.183920241,0.203094476,-0.050174087
4/24/2002,-0.010304334,-0.269226349,0.942811157,0.184057398,0.202028724,-0.049366597
4/25/2002,-0.010328202,-0.270123274,0.945242784,0.185291102,0.199545742,-0.049628151
4/26/2002,-0.009914919,-0.270507493,0.946580168,0.184412323,0.199519755,-0.050089833
4/29/2002,-0.009926033,-0.271431499,0.949473387,0.1852504,0.197590399,-0.050956654
4/30/2002,-0.010145932,-0.271289908,0.948085237,0.187329841,0.19704434,-0.051023578
5/1/2002,-0.010042097,-0.270649637,0.946152576,0.188251901,0.196466646,-0.050179389
5/2/2002,-0.009683054,-0.269701026,0.94287785,0.189673676,0.196175587,-0.049343034
5/3/2002,-0.009385312,-0.269496179,0.943040549,0.189112961,0.196364433,-0.049636453
5/7/2002,-0.009175295,-0.270929057,0.947731985,0.187476499,0.194717107,-0.04982124
5/8/2002,-0.010149648,-0.271881267,0.947112961,0.187759715,0.198204721,-0.051046482
5/9/2002,-0.009823847,-0.272188015,0.949977489,0.185762111,0.197219611,-0.050947348
5/10/2002,-0.009407483,-0.271952547,0.952756303,0.184379003,0.195727653,-0.051502929
5/13/2002,-0.009849028,-0.272857264,0.952804086,0.185727945,0.196386161,-0.052211899
5/14/2002,-0.010359997,-0.27294707,0.951240354,0.186794104,0.198491982,-0.053219373
5/15/2002,-0.0103392,-0.27138857,0.946813507,0.186880202,0.199512412,-0.051478351
5/16/2002,-0.010353046,-0.270876761,0.947690476,0.185271665,0.19940361,-0.051135945
5/17/2002,-0.010425608,-0.270573291,0.94486608,0.185898378,0.201293191,-0.05105875
5/20/2002,-0.01014996,-0.270392929,0.946775096,0.185128483,0.199599011,-0.0509597
5/21/2002,-0.009868214,-0.27099315,0.949715654,0.183987618,0.197087565,-0.049929474
5/22/2002,-0.009904659,-0.270324933,0.948723294,0.183432638,0.197904412,-0.049830752
5/23/2002,-0.010072973,-0.270117463,0.946939023,0.186604191,0.196314382,-0.04966716
5/24/2002,-0.009780998,-0.269598536,0.94506484,0.185797971,0.197692645,-0.049175922
5/28/2002,-0.00969575,-0.269067591,0.943966815,0.186726894,0.196501367,-0.048431734
5/29/2002,-0.00946683,-0.268556774,0.944300416,0.187800814,0.194926043,-0.049003669
5/30/2002,-0.009521283,-0.268298982,0.944216532,0.187553244,0.193403574,-0.047353085
5/31/2002,-0.009406052,-0.269241607,0.947656453,0.187724844,0.191535536,-0.048269174
6/5/2002,-0.009298692,-0.269336608,0.94719531,0.18797996,0.191493872,-0.048033842
6/6/2002,-0.00899612,-0.269405751,0.948482609,0.187142523,0.190651229,-0.047874489
6/7/2002,-0.008904456,-0.270951015,0.950917931,0.187891903,0.188951218,-0.047905582
6/10/2002,-0.008838256,-0.270241869,0.948663117,0.187836113,0.189755222,-0.047174327
6/11/2002,-0.00854365,-0.269421825,0.948758748,0.18753495,0.1884993,-0.046827523
6/12/2002,-0.008718347,-0.269780962,0.950315617,0.188039542,0.18746988,-0.047325729
6/13/2002,-0.008588964,-0.270363155,0.952047033,0.187997656,0.187601613,-0.048694182
6/14/2002,-0.008604263,-0.270530393,0.955149683,0.187472325,0.185510524,-0.048997877
6/17/2002,-0.008920917,-0.270603609,0.954712284,0.188985253,0.185102226,-0.049275237
6/18/2002,-0.008830429,-0.270752453,0.954672813,0.18791302,0.1855935,-0.04859645
6/19/2002,-0.008503376,-0.270786706,0.958642531,0.187710952,0.181409857,-0.048473258
6/20/2002,-0.013777951,-0.339035242,1.178346903,0.237380268,0,-0.062913978
6/21/2002,-0.0133541,-0.337362071,1.174755305,0.23817844,0,-0.062217574
6/24/2002,-0.013718976,-0.339843975,1.178527785,0.239013241,0,-0.063978075
6/25/2002,-0.01321803,-0.338524418,1.175434909,0.240020439,0,-0.0637129
6/26/2002,-0.013249219,-0.338747216,1.177716426,0.237973122,0,-0.063693113
6/27/2002,-0.01360721,-0.339921747,1.177938554,0.239829903,0,-0.064239501
6/28/2002,-0.013594062,-0.339344678,1.175445059,0.241685517,0,-0.064191835
7/1/2002,-0.012902653,-0.339402903,1.177553479,0.239354504,0,-0.064602427
7/2/2002,-0.012446125,-0.339842214,1.180498197,0.236302956,0,-0.064512814
7/3/2002,-0.012892201,-0.340848349,1.184181424,0.234187114,0,-0.064627989
7/5/2002,-0.013763389,-0.341677151,1.183472223,0.237013865,0,-0.065045548
7/8/2002,-0.013112818,-0.34092065,1.183656211,0.233711046,0,-0.063333788
7/9/2002,-0.012754894,-0.339864207,1.184204335,0.23185622,0,-0.063441454
7/10/2002,-0.098298384,0.144079667,0.925726136,-0.068342999,0.034940955,0.061894624
7/11/2002,-0.102493649,0.144709041,0.928420131,-0.067132225,0.034352902,0.062143801
7/12/2002,-0.102537885,0.144439024,0.927084097,-0.06652999,0.034986576,0.062558178
7/15/2002,-0.104916638,0.145108042,0.928671355,-0.066125438,0.034871553,0.062391127
7/16/2002,-0.104177802,0.145379959,0.927428733,-0.067012756,0.034691279,0.063690586
7/17/2002,-0.105836537,0.14517174,0.928579046,-0.066404657,0.034781594,0.063708814
7/18/2002,-0.101507396,0.144151061,0.92384779,-0.064280093,0.034665857,0.063122781
7/19/2002,-0.097968938,0.143577706,0.920481572,-0.062967652,0.033968941,0.062908371
7/22/2002,-0.09482812,0.143014022,0.919047862,-0.061397663,0.032688689,0.06147521
7/23/2002,-0.089915079,0.142142552,0.914244824,-0.059064874,0.032445842,0.060146735
7/24/2002,-0.09584506,0.143279692,0.91915576,-0.059765688,0.031776036,0.06139926
7/25/2002,-0.089497632,0.142623837,0.915396222,-0.060928809,0.03163838,0.060768002
7/26/2002,-0.101857378,0.149296219,0.959243003,-0.070817427,0,0.064135583
7/29/2002,-0.110010457,0.151406418,0.96905078,-0.075287436,0,0.064840695
7/30/2002,-0.11132719,0.151678261,0.96982602,-0.076326129,0,0.066149038
7/31/2002,-0.108529085,0.151002109,0.967865265,-0.076003867,0,0.065665577
8/1/2002,-0.101994872,0.14987022,0.96203085,-0.073983694,0,0.064077497
8/2/2002,-0.098725794,0.148804527,0.95791819,-0.071936853,0,0.06393993
8/5/2002,-0.094290487,0.148528892,0.953390329,-0.070494479,0,0.062865745
8/6/2002,-0.099987736,0.149598926,0.957629146,-0.071541714,0,0.064301379
8/7/2002,-0.101902053,0.149976871,0.961163417,-0.072714372,0,0.063476138
8/8/2002,-0.105549151,0.15062738,0.963949894,-0.073075016,0,0.064046892
8/9/2002,-0.103764703,0.149740736,0.961838112,-0.071882206,0,0.064068061
8/12/2002,-0.103752895,0.149546646,0.961278924,-0.072522822,0,0.065450147
8/13/2002,-0.099371758,0.148350613,0.956643361,-0.070823058,0,0.065200842
8/14/2002,-0.106453787,0.149432429,0.963082475,-0.071897134,0,0.065836017
8/15/2002,-0.108211584,0.149780438,0.963178711,-0.072388878,0,0.067641313
8/16/2002,-0.110704081,0.150560526,0.965935366,-0.074004661,0,0.06821285
8/19/2002,-0.114093006,0.150705197,0.968266784,-0.073510797,0,0.068631821
8/20/2002,-0.111230945,0.149763551,0.966653427,-0.072847432,0,0.0676614
8/21/2002,-0.114585553,0.150116177,0.969607481,-0.073782973,0,0.068644867
8/22/2002,-0.116563771,0.150607508,0.970973142,-0.074050271,0,0.069033393
8/23/2002,-0.11143241,0.149753695,0.96699495,-0.073613517,0,0.068297283
8/27/2002,-0.107105194,0.149479506,0.963093473,-0.074083374,0,0.068615588
8/28/2002,-0.103326859,0.149050651,0.960929292,-0.074193575,0,0.067540491
8/29/2002,-0.10507463,0.149157294,0.962175933,-0.074034969,0,0.067776372
8/30/2002,-0.102628676,0.148722988,0.960150521,-0.074105014,0,0.067860181
9/3/2002,-0.096943816,0.147837063,0.956248518,-0.072624302,0,0.065482537
9/4/2002,-0.099291971,0.147962873,0.957708116,-0.073037284,0,0.066658266
9/5/2002,-0.09438901,0.146963354,0.951995572,-0.072085117,0,0.067515201
9/6/2002,-0.099293157,0.148340239,0.954990097,-0.07311302,0,0.069075841
9/9/2002,-0.100433964,0.148327986,0.955273958,-0.073018039,0,0.069850059
9/10/2002,-0.102031532,0.148177357,0.956827014,-0.072928564,0,0.069955725
9/11/2002,-0.102098042,0.14833174,0.956802035,-0.073064125,0,0.070028392
9/12/2002,-0.098007662,0.147652812,0.954217708,-0.072178813,0,0.068315955
9/13/2002,-0.098702835,0.147414894,0.954517842,-0.072471362,0,0.069241461
9/16/2002,-0.096724412,0.14710737,0.952556959,-0.071893515,0,0.068953598
9/17/2002,-0.095412681,0.146832704,0.951644374,-0.071392441,0,0.068328043
9/18/2002,-0.095090722,0.146474882,0.950721656,-0.071152747,0,0.06904693
9/19/2002,-0.091369102,0.145897169,0.947176686,-0.070168205,0,0.068463452
9/20/2002,-0.092175,0.145952521,0.948613548,-0.070902715,0,0.068511646
9/23/2002,-0.088541235,0.145189732,0.944472945,-0.07012691,0,0.069005468
9/24/2002,-0.088586972,0.145283489,0.944073695,-0.069645425,0,0.068875213
9/25/2002,-0.093009271,0.146347092,0.947587239,-0.069819374,0,0.068894315
9/26/2002,-0.09230206,0.146154316,0.947786042,-0.070605088,0,0.06896679
9/27/2002,-0.090432628,0.145496738,0.945428384,-0.069444678,0,0.068952185
9/30/2002,-0.086954012,0.145074887,0.942288765,-0.068848618,0,0.068438979
10/1/2002,-0.091373925,0.145930971,0.945217064,-0.069093103,0,0.069318993
10/2/2002,-0.088840279,0.145246212,0.94268236,-0.067962906,0,0.068874613
10/3/2002,-0.087101919,0.145272076,0.942613425,-0.067919918,0,0.067136336
10/4/2002,-0.085016756,0.144977943,0.939910318,-0.06660655,0,0.066735045
10/7/2002,-0.083549069,0.144537394,0.936872942,-0.064472742,0,0.066611475
10/8/2002,-0.08436887,0.144772625,0.936505152,-0.063832616,0,0.066923709
10/9/2002,-0.031069662,0.752804043,0.355718364,-0.040454304,-0.03466824,-0.002330202
10/10/2002,-0.032779398,0.7546095,0.356290251,-0.04162136,-0.034186168,-0.002312826
10/11/2002,-0.034470916,0.757233326,0.356640258,-0.042558474,-0.034490655,-0.00235354
10/15/2002,-0.03700552,0.761337575,0.35738874,-0.043302381,-0.036003732,-0.002414682
10/16/2002,-0.035382514,0.760253273,0.356690389,-0.042857844,-0.036296695,-0.00240661
10/17/2002,-0.036834167,0.763057448,0.356788789,-0.043581707,-0.037005714,-0.002424648
10/18/2002,-0.0373117,0.763707084,0.357250625,-0.043508816,-0.037715654,-0.00242154
10/21/2002,-0.038235056,0.764889262,0.35672167,-0.043375084,-0.037640961,-0.002359831
10/22/2002,-0.037613252,0.763520294,0.356465887,-0.042680587,-0.037352027,-0.002340314
10/23/2002,-0.038603897,0.7650645,0.356711279,-0.042656313,-0.038164499,-0.00235107
10/24/2002,-0.037590895,0.763649703,0.357492617,-0.043102609,-0.038098927,-0.002349889
10/25/2002,-0.038778,0.76448602,0.358477977,-0.043762787,-0.038121602,-0.002301608
10/28/2002,-0.038054365,0.763946221,0.358322897,-0.043393986,-0.038513049,-0.002307718
10/29/2002,-0.037148111,0.761649763,0.358534492,-0.042879114,-0.037883696,-0.002273334
10/30/2002,-0.038177097,0.76222672,0.359072922,-0.043013895,-0.037825856,-0.002282794
10/31/2002,-0.03824602,0.762676505,0.359222764,-0.043087569,-0.038271109,-0.002294571
11/1/2002,-0.039456003,0.764185834,0.359363805,-0.043588039,-0.03820922,-0.002296378
11/4/2002,-0.040647918,0.766144984,0.360158292,-0.044297878,-0.039075234,-0.002282246
11/5/2002,-0.040825073,0.766141922,0.360409736,-0.04451629,-0.038966095,-0.002244201
11/6/2002,-0.041453839,0.766497019,0.361542117,-0.044892861,-0.0394682,-0.002224236
11/7/2002,-0.039687373,0.764069963,0.3617956,-0.044393764,-0.039590253,-0.002194173
11/8/2002,-0.038900203,0.763369818,0.361270872,-0.044001802,-0.039548637,-0.002190047
11/12/2002,-0.038553931,0.763096052,0.360336171,-0.044008698,-0.038689724,-0.00217987
11/13/2002,-0.038919111,0.762755873,0.360454607,-0.04357152,-0.038575042,-0.002144807
11/14/2002,-0.040878436,0.765620446,0.360934374,-0.044605213,-0.03890597,-0.002165202
11/15/2002,-0.04103029,0.766080369,0.361241435,-0.044483185,-0.039622104,-0.002186225
11/18/2002,-0.040364217,0.765068446,0.361523721,-0.044239765,-0.039744362,-0.002243823
11/19/2002,-0.039522504,0.764144393,0.361123781,-0.044150136,-0.039360503,-0.002235032
11/20/2002,-0.04131077,0.766592342,0.360892466,-0.044451496,-0.039455134,-0.002267408
11/21/2002,-0.04333253,0.76855435,0.362125069,-0.044838642,-0.04021444,-0.002293806
11/22/2002,-0.043270419,0.769305544,0.361868257,-0.04510928,-0.040479185,-0.002314916
11/25/2002,-0.043731879,0.76978579,0.362165828,-0.045136608,-0.040795502,-0.00228763
11/26/2002,-0.041978623,0.76760491,0.361829498,-0.044857257,-0.040320131,-0.002278398
11/27/2002,-0.043652571,0.770412837,0.361747119,-0.045521808,-0.040673686,-0.002311891
11/29/2002,-0.043217695,0.770003359,0.362023542,-0.045344648,-0.041158876,-0.002305683
12/2/2002,-0.043442954,0.770582055,0.36255396,-0.045865372,-0.041491451,-0.002336237
12/3/2002,-0.042118135,0.769570436,0.361850085,-0.045507087,-0.041474127,-0.002321172
12/4/2002,-0.041258624,0.76785607,0.361694682,-0.045261391,-0.040741814,-0.002288922
12/5/2002,-0.040550697,0.766905724,0.361801693,-0.045184311,-0.040661595,-0.002310814
12/6/2002,-0.041005053,0.766965921,0.361886795,-0.045060578,-0.040497532,-0.002289553
12/9/2002,-0.038862351,0.765402114,0.361334744,-0.04512993,-0.040453054,-0.002291522
12/10/2002,-0.039542527,0.765647157,0.361329609,-0.044974787,-0.040127028,-0.002332424
12/11/2002,-0.039607575,0.765071043,0.361672806,-0.044822856,-0.039989605,-0.002323812
12/12/2002,-0.039743548,0.765576738,0.36166998,-0.044882662,-0.04024949,-0.002371019
12/13/2002,-0.038357164,0.764790639,0.360675755,-0.044576692,-0.040130075,-0.002402464
12/16/2002,-0.039815344,0.766600692,0.360826629,-0.045075345,-0.040057988,-0.002478644
12/17/2002,-0.039675512,0.766268006,0.360797274,-0.044591521,-0.040333219,-0.002465027
12/18/2002,-0.038530904,0.764749986,0.360582451,-0.044169876,-0.040150972,-0.002480686
12/19/2002,-0.038176081,0.763608249,0.361228575,-0.044032127,-0.040164583,-0.002464033
12/20/2002,-0.038484124,0.764110389,0.361527616,-0.044241227,-0.040443705,-0.00246895
12/23/2002,-0.039216515,0.764832244,0.361603207,-0.04457719,-0.040109647,-0.0025321
12/24/2002,-0.038813876,0.764013933,0.361672462,-0.044566746,-0.039765534,-0.002540238
12/27/2002,-0.037694213,0.762150552,0.361842492,-0.044298169,-0.039463467,-0.002537194
12/30/2002,-0.037319528,0.761483617,0.361608606,-0.044468746,-0.038845354,-0.002458595
12/31/2002,-0.037112786,0.761625952,0.361332464,-0.044536969,-0.038866414,-0.002442247
1/2/2003,-0.03896973,0.76478821,0.361126856,-0.04504174,-0.039386421,-0.002517174
1/3/2003,-0.039172004,0.765667621,0.361794961,-0.045478517,-0.040228663,-0.002583399
1/6/2003,-0.040357482,0.767323807,0.362337946,-0.04603337,-0.040748191,-0.00252271
1/7/2003,-0.040666331,0.766404472,0.362389683,-0.045247678,-0.040398408,-0.002481739
1/8/2003,-0.039413155,0.764939775,0.361955411,-0.044655345,-0.04036557,-0.002461117
1/9/2003,-0.040814271,0.767595032,0.361111313,-0.044929357,-0.040425252,-0.002537465
1/10/2003,-0.041234304,0.767667549,0.361199808,-0.04451543,-0.040613991,-0.002503633
1/13/2003,-0.041063278,0.767288244,0.361787108,-0.044306806,-0.041174589,-0.002530679
1/14/2003,-0.02211877,0.78186896,0.325244004,-0.045068582,-0.03111572,-0.008809891
1/15/2003,-0.021656478,0.781365623,0.325193853,-0.044853185,-0.031114396,-0.008935416
1/16/2003,-0.021389075,0.780829997,0.324826141,-0.044369939,-0.030879173,-0.009017951
1/17/2003,-0.020403846,0.779382729,0.324102673,-0.043754613,-0.030347486,-0.008979457
1/21/2003,-0.02019248,0.778706651,0.323902953,-0.043514379,-0.029928398,-0.008974348
1/22/2003,-0.020116086,0.778136194,0.324044332,-0.043431975,-0.029657676,-0.008974789
1/23/2003,-0.020649047,0.779010655,0.32397619,-0.043604424,-0.029849779,-0.008883596
1/24/2003,-0.019843032,0.777791943,0.323481787,-0.043044641,-0.029366809,-0.009019248
1/27/2003,-0.019633683,0.777445101,0.322685963,-0.042815486,-0.028831491,-0.008850404
1/28/2003,-0.019951661,0.777947272,0.32293507,-0.042976688,-0.029001416,-0.008952577
1/29/2003,-0.020270646,0.77903568,0.322750063,-0.043418241,-0.028915938,-0.009180918
1/30/2003,-0.019623522,0.777856361,0.323011787,-0.043058623,-0.028968814,-0.009217189
1/31/2003,-0.01958321,0.778073082,0.323512986,-0.043765901,-0.029040671,-0.009196285
2/3/2003,-0.019664901,0.777999131,0.323545039,-0.043566161,-0.029187924,-0.009125185
2/4/2003,-0.019327709,0.777606751,0.323746917,-0.043658988,-0.029111954,-0.009255017
2/5/2003,-0.019290435,0.778183805,0.323305973,-0.043738803,-0.029129698,-0.009330842
2/6/2003,-0.019296738,0.777479931,0.32363857,-0.043699557,-0.028723197,-0.009399007
2/7/2003,-0.018989507,0.776810667,0.323383366,-0.043243493,-0.0283449,-0.009616134
2/10/2003,-0.019253595,0.777487007,0.323029643,-0.043663963,-0.028115916,-0.009483177
2/11/2003,-0.019281234,0.777111167,0.323141232,-0.043201192,-0.028155286,-0.009614688
2/12/2003,-0.018944299,0.776543827,0.322956814,-0.042841048,-0.02820782,-0.009507475
2/13/2003,-0.018818173,0.775834105,0.323126296,-0.042866082,-0.027726634,-0.009549512
2/14/2003,-0.019444037,0.776723864,0.322838083,-0.042743703,-0.027767438,-0.00960677
2/18/2003,-0.020129803,0.777937598,0.323749322,-0.04335503,-0.028576296,-0.009625791
2/19/2003,-0.019905987,0.777616175,0.323850614,-0.043509311,-0.02836988,-0.00968161
2/20/2003,-0.019795852,0.777251414,0.32399648,-0.043507789,-0.028395953,-0.009548299
2/21/2003,-0.020115233,0.778349999,0.324044351,-0.043979228,-0.028524053,-0.009775836
2/24/2003,-0.019645938,0.777946121,0.323949265,-0.043523135,-0.028575494,-0.010150819
2/25/2003,-0.019710378,0.777512692,0.323919762,-0.043918959,-0.027983375,-0.009819742
2/26/2003,-0.019203659,0.776810214,0.324137909,-0.043694148,-0.027895521,-0.010154793
2/27/2003,-0.019629731,0.77691553,0.324838689,-0.044076315,-0.027932753,-0.01011542
2/28/2003,-0.019890514,0.776829498,0.325130743,-0.044023408,-0.027856425,-0.010189894
3/3/2003,-0.019494304,0.776547546,0.325010501,-0.044010728,-0.028152081,-0.009900933
3/4/2003,-0.019308944,0.775920321,0.324838945,-0.043659039,-0.027804989,-0.009986295
3/5/2003,-0.019436924,0.775609375,0.324956566,-0.043745438,-0.027457502,-0.009926076
3/6/2003,-0.019303637,0.775485727,0.324466958,-0.043456406,-0.027242576,-0.009950066
3/7/2003,-0.019338271,0.775480906,0.324426313,-0.043408387,-0.027036539,-0.010124022
3/10/2003,-0.018845108,0.774157687,0.3241755,-0.042847261,-0.026699312,-0.009941508
3/11/2003,-0.018730831,0.773919473,0.323830195,-0.042805025,-0.026494017,-0.009719795
3/12/2003,-0.018974178,0.774198982,0.323868044,-0.042771064,-0.026516072,-0.009805713
3/13/2003,-0.020217254,0.775988589,0.324140165,-0.04348463,-0.026926623,-0.009500247
3/14/2003,-0.020246502,0.775402758,0.324760924,-0.04338382,-0.027239682,-0.009293678
3/17/2003,-0.021232403,0.776585222,0.325098248,-0.044458132,-0.026818118,-0.009174818
3/18/2003,-0.021353096,0.777700625,0.324562202,-0.044602754,-0.027524257,-0.008782719
3/19/2003,-0.021267713,0.777917509,0.324766168,-0.045110092,-0.027596952,-0.00870892
3/20/2003,-0.021394761,0.778893279,0.324654068,-0.045580438,-0.028048627,-0.008523521
3/21/2003,-0.021708763,0.780089654,0.324565371,-0.046440805,-0.028238761,-0.008266696
3/24/2003,-0.020677363,0.777455223,0.324632849,-0.04512162,-0.027812648,-0.008476442
3/25/2003,-0.021051818,0.77795424,0.324703714,-0.045615423,-0.027676338,-0.008314375
3/26/2003,-0.021043588,0.777894904,0.325075926,-0.04578921,-0.027748073,-0.008389959
3/27/2003,-0.020929835,0.777720479,0.324941208,-0.045500377,-0.027581338,-0.008650137
3/28/2003,-0.020601895,0.776979294,0.325028482,-0.045284749,-0.02753566,-0.008585472
3/31/2003,-0.019950055,0.775684755,0.32459612,-0.044756759,-0.026905515,-0.008668546
4/1/2003,-0.020050113,0.776404944,0.324931307,-0.045720478,-0.02707285,-0.008492809
4/2/2003,-0.020912399,0.777981327,0.325001998,-0.046322654,-0.027419452,-0.008328821
4/3/2003,-0.020929862,0.777604494,0.325399276,-0.046137208,-0.027585328,-0.008351371
4/4/2003,-0.020665267,0.777455119,0.325197233,-0.045775044,-0.027907739,-0.0083043
4/7/2003,-0.020785383,0.778518322,0.325633929,-0.046445752,-0.028610663,-0.008310453
4/8/2003,-0.020604027,0.777417428,0.325991034,-0.04611072,-0.02840535,-0.008288365
4/9/2003,-0.020116249,0.776894895,0.325922455,-0.046128813,-0.028132918,-0.00843937
4/10/2003,-0.020281869,0.777427838,0.325184642,-0.045919486,-0.028120477,-0.008290649
4/11/2003,-0.020176051,0.77733877,0.325267998,-0.045798581,-0.028266058,-0.008366077
4/14/2003,-0.020647584,0.778461295,0.325582001,-0.046517543,-0.028482257,-0.008395912
4/15/2003,-0.022654292,0.492967077,0.65153544,-0.101913063,-0.060420685,0.040485524
4/16/2003,-0.022690352,0.493216945,0.652355299,-0.102187648,-0.061146304,0.040452059
4/17/2003,-0.023304151,0.493767328,0.652325671,-0.102861454,-0.06119565,0.041268255
4/22/2003,-0.023740609,0.495205923,0.653496045,-0.104723671,-0.061162346,0.040924658
4/23/2003,-0.02400571,0.495681635,0.654947953,-0.10524549,-0.06131721,0.039938822
4/24/2003,-0.023785193,0.493977601,0.653979755,-0.103634946,-0.060161697,0.03962448
4/25/2003,-0.023175155,0.492803834,0.652762836,-0.102619207,-0.059095997,0.03932369
4/28/2003,-0.023725734,0.493670939,0.65393391,-0.102694828,-0.059598019,0.038413732
4/29/2003,-0.023994281,0.494802887,0.655090253,-0.103144765,-0.061074394,0.038320301
4/30/2003,-0.023652313,0.49301832,0.65480032,-0.101841742,-0.061011625,0.03868704
5/1/2003,-0.023816462,0.493382272,0.655244355,-0.102501323,-0.061066536,0.038757693
5/2/2003,-0.024383787,0.495169103,0.656093678,-0.103852028,-0.061546218,0.038519253
5/6/2003,-0.024707699,0.494809895,0.658543395,-0.105521504,-0.062040615,0.038916527
5/7/2003,-0.024228188,0.493816297,0.657839972,-0.10432045,-0.062327064,0.039219433
5/8/2003,-0.02382592,0.493290246,0.657351973,-0.104821637,-0.06182662,0.039831958
5/9/2003,-0.024375385,0.49417388,0.657841627,-0.105952728,-0.062358062,0.040670668
5/12/2003,-0.024735767,0.494633251,0.658988296,-0.106508616,-0.063071992,0.040694829
5/13/2003,-0.024601414,0.49407587,0.658200618,-0.106386208,-0.062926062,0.041637196
5/14/2003,-0.024347511,0.492339878,0.658163643,-0.105581675,-0.062563147,0.041988813
5/15/2003,-0.024688736,0.493221787,0.658467008,-0.106020813,-0.062685438,0.041706191
5/16/2003,-0.024435655,0.492618086,0.65824204,-0.106157706,-0.062044474,0.041777709
5/19/2003,-0.02348247,0.492135648,0.657005548,-0.105374181,-0.061401192,0.041116648
5/20/2003,-0.023456232,0.491656502,0.657835673,-0.106001441,-0.061177938,0.041143437
5/21/2003,-0.02347757,0.492166764,0.65732935,-0.106498267,-0.061271578,0.041751301
5/22/2003,-0.023870658,0.492788012,0.658761655,-0.107430027,-0.061707417,0.041458435
5/23/2003,-0.023844648,0.493593437,0.659098508,-0.107784996,-0.062721578,0.041659277
5/27/2003,-0.02479254,0.494849067,0.659729985,-0.108143088,-0.063305831,0.041662406
5/28/2003,-0.024840005,0.494580411,0.660050322,-0.10676653,-0.064160046,0.041135849
5/29/2003,-0.024905588,0.492707099,0.659032122,-0.103993848,-0.064262649,0.041422864
5/30/2003,-0.025286655,0.493963123,0.660153349,-0.106234295,-0.064498991,0.041903469
6/2/2003,-0.02505834,0.494588388,0.659863488,-0.106895786,-0.06542873,0.042930981
6/3/2003,-0.025268396,0.494530194,0.660133868,-0.107069573,-0.064979568,0.042653474
6/4/2003,-0.025860495,0.495183301,0.662185005,-0.108303108,-0.065433833,0.042229131
6/5/2003,-0.026008627,0.496232611,0.66119282,-0.108290837,-0.066020355,0.042894388
6/6/2003,-0.025644827,0.496312712,0.661966025,-0.109499429,-0.066464834,0.043330354
6/9/2003,-0.025187657,0.495129076,0.661784971,-0.108353728,-0.066500602,0.043127939
6/10/2003,-0.025507251,0.495336816,0.662735547,-0.109619801,-0.066244304,0.043298995
6/11/2003,-0.025830496,0.496274072,0.662790103,-0.110389212,-0.066317128,0.043472661
6/12/2003,-0.025850625,0.496207686,0.663496088,-0.10909145,-0.067046273,0.042284575
6/13/2003,-0.02523727,0.49537835,0.663047663,-0.107339977,-0.06709113,0.041242363
6/16/2003,-0.026118713,0.496858178,0.664175504,-0.108790025,-0.067670461,0.041545518
6/17/2003,-0.026157737,0.497349478,0.664290311,-0.10821368,-0.069069009,0.041800636
6/18/2003,-0.026412954,0.496884953,0.6644219,-0.107462449,-0.068876715,0.041445264
6/19/2003,-0.025938801,0.49595718,0.664847796,-0.107198813,-0.069215755,0.041548394
6/20/2003,-0.025877485,0.49658715,0.663635508,-0.107395135,-0.068998529,0.042048491
6/23/2003,-0.025280675,0.494500975,0.662661747,-0.105740526,-0.067754606,0.041613085
6/24/2003,-0.025079528,0.494048613,0.663368751,-0.106136203,-0.067293689,0.041092057
6/25/2003,-0.025066486,0.495625756,0.662365012,-0.107043371,-0.068058133,0.042177223
6/26/2003,-0.025828804,0.497912331,0.664388394,-0.109197645,-0.068592328,0.041318052
6/27/2003,-0.025670459,0.497671944,0.664873951,-0.109599803,-0.068923924,0.041648291
6/30/2003,-0.025538386,0.496554581,0.664667407,-0.109368939,-0.068589015,0.042274352
7/1/2003,-0.02592665,0.497755728,0.665675749,-0.110408838,-0.069576502,0.042480513
7/2/2003,-0.02662332,0.498755017,0.668673759,-0.112465399,-0.070780114,0.042440058
7/3/2003,-0.026432552,0.499219961,0.669411101,-0.11347278,-0.07149486,0.04276913
7/7/2003,-0.027626485,0.501737567,0.671320345,-0.115174119,-0.073187958,0.04293065
7/8/2003,-0.028020701,0.502001272,0.671826418,-0.115431214,-0.073666011,0.043290237
7/9/2003,-0.027858706,0.50103047,0.670455536,-0.114410571,-0.073040752,0.043824022
7/10/2003,-0.027162267,0.499805878,0.668270166,-0.112194366,-0.072115256,0.043395845
7/11/2003,-0.027407513,0.499988735,0.669133697,-0.113199408,-0.072008989,0.043493477
7/14/2003,-0.027850439,0.50222493,0.670406724,-0.114601619,-0.073769846,0.043590251
7/15/2003,-0.027980749,0.503722468,0.669692903,-0.115221777,-0.073889094,0.043676248
7/16/2003,-0.027964086,0.503691326,0.670046371,-0.115228776,-0.073637241,0.043092405
7/17/2003,-0.027077089,0.501971172,0.667612317,-0.113265774,-0.072507953,0.043267327
7/18/2003,0.00600975,0.40438132,0.380306441,0.115422785,0.050229736,0.043649969
7/21/2003,0.005941094,0.405569982,0.379136638,0.11530574,0.050297012,0.043749535
7/22/2003,0.006021119,0.40553058,0.379497038,0.116057751,0.050481606,0.042411906
7/23/2003,0.00606809,0.405768584,0.379838923,0.115333223,0.050333653,0.042657527
7/24/2003,0.00599532,0.404925978,0.379066392,0.116247742,0.050815041,0.042949527
7/25/2003,0.006099351,0.405076205,0.378131241,0.116659812,0.051121675,0.042911717
7/28/2003,0.006123313,0.405288355,0.377339439,0.116393821,0.05182237,0.043032701
7/29/2003,0.006103585,0.405776118,0.375734072,0.11755419,0.051710297,0.043121738
7/30/2003,0.006035916,0.40464937,0.3759151,0.118784313,0.051293861,0.043321439
7/31/2003,0.006121372,0.405462168,0.374164626,0.119024048,0.051685661,0.043542126
8/1/2003,0.006060754,0.404596156,0.373982306,0.11845356,0.051775716,0.045131507
8/4/2003,0.00607344,0.404839484,0.375283639,0.117706663,0.051571881,0.044524893
8/5/2003,0.005899373,0.405659008,0.374606827,0.117514302,0.05138706,0.044933431
8/6/2003,0.005814916,0.404971319,0.376522543,0.1172508,0.050807364,0.044633058
8/7/2003,0.005805811,0.404174228,0.376321993,0.117340481,0.051030986,0.045326501
8/8/2003,0.005753965,0.404928869,0.37622574,0.117092485,0.050975252,0.045023689
8/11/2003,0.005838685,0.404714617,0.375597058,0.117373987,0.051455108,0.045020545
8/12/2003,0.005917166,0.404503085,0.375602623,0.117348505,0.051479506,0.045149114
8/13/2003,0.005945808,0.405562,0.374145708,0.117286231,0.052435934,0.04462432
8/14/2003,0.006001571,0.404377927,0.374085113,0.11806657,0.05293591,0.044532909
8/15/2003,0.006008519,0.404358633,0.374654432,0.117398501,0.053108552,0.044471364
8/18/2003,0.006144738,0.403291854,0.374865932,0.117818274,0.053361813,0.044517389
8/19/2003,0.006205807,0.401751611,0.376146532,0.118143806,0.053466824,0.04428542
8/20/2003,0.006207472,0.401401949,0.375513899,0.118465942,0.053559852,0.044850886
8/21/2003,0.006271567,0.401403514,0.373836786,0.11863222,0.054225886,0.045630027
8/22/2003,0.006226097,0.401438261,0.374657246,0.117465795,0.054460027,0.045752575
8/26/2003,0.006255626,0.401481328,0.374999186,0.117754418,0.054011401,0.045498041
8/27/2003,0.006300648,0.401487162,0.374170472,0.118986226,0.054250829,0.044804663
8/28/2003,0.00635167,0.400670407,0.375181777,0.118612142,0.054212837,0.044971167
8/29/2003,0.006388578,0.400099102,0.374737825,0.119003455,0.054742685,0.045028355
9/2/2003,0.006514664,0.39915669,0.374246095,0.121310682,0.055477142,0.043294727
9/3/2003,0.006499126,0.398341013,0.373750925,0.122196337,0.055806839,0.04340576
9/4/2003,0.006542234,0.39836676,0.374155857,0.122027566,0.05581666,0.043090922
9/5/2003,0.006463909,0.398082293,0.375715598,0.121019203,0.055890019,0.042828979
9/8/2003,0.0065758,0.398252274,0.375071033,0.121308726,0.056046956,0.04274521
9/9/2003,0.006504389,0.397604474,0.375782562,0.121122401,0.055908519,0.043077655
9/10/2003,0.006318023,0.397895941,0.377368848,0.119313553,0.055696333,0.043407302
9/11/2003,0.00640409,0.398427172,0.376343954,0.120224387,0.055766097,0.0428343
9/12/2003,0.006424974,0.398703467,0.376672205,0.120263959,0.055658502,0.042276892
9/15/2003,0.006382613,0.398779671,0.377512561,0.119958067,0.055190421,0.042176667
9/16/2003,0.006545551,0.399129498,0.376955061,0.120155136,0.05564333,0.041571424
9/17/2003,0.006510925,0.39913577,0.378173509,0.11937987,0.055749225,0.041050699
9/18/2003,0.006613614,0.399136409,0.377750253,0.120043418,0.055626061,0.040830245
9/19/2003,0.006284049,0.422838194,0.397664483,0.120690941,0.052522334,0
9/22/2003,0.006166394,0.424438357,0.39669519,0.120720752,0.051979307,0
9/23/2003,0.006252452,0.42392377,0.396493263,0.121229523,0.052100992,0
9/24/2003,0.006028462,0.423516678,0.397696246,0.120283934,0.052474679,0
9/25/2003,0.005967781,0.423521464,0.398349982,0.120172207,0.051988566,0
9/26/2003,0.005888491,0.423359474,0.399285453,0.119928563,0.051538019,0
9/29/2003,0.006003924,0.423054439,0.398480777,0.120886951,0.051573908,0
9/30/2003,0.005837513,0.422375283,0.399282239,0.121036047,0.051468918,0
10/1/2003,0.005966742,0.421714682,0.398570886,0.121824632,0.051923058,0
10/2/2003,0.00597607,0.420887864,0.397545325,0.122927948,0.052662793,0
10/3/2003,0.006157504,0.420920169,0.395306443,0.124397613,0.053218272,0
10/6/2003,0.006168748,0.419782852,0.395158283,0.125351918,0.053538199,0
10/7/2003,0.006225699,0.420326796,0.394362283,0.125179212,0.05390601,0
10/8/2003,0.006175028,0.420362976,0.39428299,0.124960737,0.054218269,0
10/9/2003,0.006239101,0.420074038,0.39344823,0.125333422,0.05490521,0
10/10/2003,0.006266314,0.419670146,0.393769225,0.124893425,0.055400891,0
10/14/2003,0.006349227,0.418924627,0.393278983,0.125819484,0.055627678,0
10/15/2003,0.006343274,0.419365593,0.393121806,0.125597462,0.055571866,0
10/16/2003,0.006383894,0.419681844,0.391971891,0.125875594,0.056086776,0
10/17/2003,0.006241989,0.41954109,0.39346988,0.124873642,0.055873399,0
10/20/2003,0.01702972,0.535535134,0.265975767,0.086639641,0.078706298,0.016113441
10/21/2003,0.01716632,0.535954401,0.265812889,0.086524061,0.078424552,0.016117778
10/22/2003,0.016747086,0.536557955,0.266783779,0.085608055,0.0782343,0.016068825
10/23/2003,0.016666207,0.538252164,0.266986745,0.085016003,0.076795357,0.016283523
10/24/2003,0.016570041,0.537960201,0.268088573,0.084390135,0.076761604,0.016229445
10/27/2003,0.016649232,0.537562871,0.2675469,0.085342768,0.076804156,0.016094073
10/28/2003,0.017127389,0.536378835,0.268077033,0.084579953,0.077833524,0.016003266
10/29/2003,0.017122414,0.5362702,0.267185613,0.0853541,0.078142595,0.015925077
10/30/2003,0.017110684,0.5361385,0.26681222,0.085802997,0.078439351,0.015696248
10/31/2003,0.017085122,0.536205582,0.267166792,0.085385878,0.078227636,0.01592899
11/3/2003,0.017389882,0.534785708,0.266292748,0.086436391,0.079370697,0.015724575
11/4/2003,0.017203525,0.534422107,0.266637267,0.086416794,0.07965792,0.015662387
11/5/2003,0.017213156,0.5345036,0.266099272,0.086246831,0.079711559,0.016225582
11/6/2003,0.017369045,0.534420247,0.265839152,0.087141113,0.079116146,0.016114297
11/7/2003,0.017331322,0.533637839,0.265546778,0.087515666,0.079643273,0.01632512
11/10/2003,0.017071098,0.534390334,0.265612237,0.08735166,0.079230413,0.016344259
11/12/2003,0.017359738,0.534256245,0.265574764,0.087679955,0.078667215,0.016462082
11/13/2003,0.017248213,0.53297474,0.266233807,0.087649841,0.079321197,0.016572202
11/14/2003,0.016824788,0.532785039,0.266584802,0.087837913,0.079186885,0.016780574
11/17/2003,0.016666095,0.534231546,0.267220451,0.087606644,0.077807914,0.01646735
11/18/2003,0.01631572,0.534057365,0.2673426,0.087517204,0.077900186,0.016866925
11/19/2003,0.016527564,0.535280369,0.267206194,0.087525214,0.076857379,0.016603281
11/20/2003,0.016362099,0.535672822,0.268295005,0.086796445,0.076356566,0.016517062
11/21/2003,0.016460497,0.535822392,0.268083295,0.086422178,0.076754943,0.016456694
11/24/2003,0.017033411,0.535687148,0.26777264,0.087176597,0.076381433,0.01594877
11/25/2003,0.016906272,0.534453378,0.267813706,0.087783663,0.077082743,0.015960239
11/26/2003,0.016996949,0.534094225,0.266964099,0.088157002,0.077663252,0.016124473
11/28/2003,0.017048465,0.533633978,0.266224151,0.088380201,0.078509504,0.016203701
12/1/2003,0.017294048,0.532034254,0.265153998,0.089372216,0.079889162,0.016256322
12/2/2003,0.017111036,0.531635099,0.265354527,0.089130042,0.080149888,0.016619409
12/3/2003,0.016955277,0.532072252,0.264954565,0.08896295,0.080284798,0.016770158
12/4/2003,0.017104411,0.531977527,0.265560066,0.08857294,0.07981355,0.016971506
12/5/2003,0.016749004,0.532215288,0.266758144,0.088290581,0.079297148,0.016689836
12/8/2003,0.016867386,0.532098954,0.265831939,0.088831819,0.079053167,0.017316736
12/9/2003,0.016461432,0.532353216,0.265182024,0.088941971,0.079913479,0.017147878
12/10/2003,0.016511834,0.532711261,0.265488051,0.088569836,0.079601465,0.017117554
12/11/2003,0.016813417,0.531371647,0.26600593,0.08900176,0.079796452,0.017010793
12/12/2003,0.016769021,0.531257454,0.265316704,0.089082384,0.080103861,0.017470575
12/15/2003,0.016545013,0.531172805,0.265377922,0.088606876,0.080804714,0.01749267
12/16/2003,0.016602669,0.531352503,0.265639425,0.089097701,0.079968303,0.017339398
12/17/2003,0.01655088,0.531690714,0.265931853,0.089054419,0.079212014,0.01756012
12/18/2003,0.016888973,0.530742124,0.265981938,0.088913707,0.079791832,0.017681426
12/19/2003,0.016827046,0.530428287,0.266059683,0.089071534,0.080156468,0.017456982
12/22/2003,0.016879852,0.530604927,0.26563253,0.089424894,0.080621924,0.016835874
12/23/2003,0.017085777,0.531303338,0.264706939,0.089413989,0.080696282,0.016793674
12/24/2003,0.016999791,0.5304891,0.265153019,0.089513756,0.080890721,0.016953614
12/29/2003,0.017296382,0.529545112,0.264766868,0.090040175,0.081525581,0.016825881
12/30/2003,0.017277907,0.52880537,0.264224444,0.090201233,0.082447545,0.0170435
12/31/2003,0.017260671,0.529094943,0.264578918,0.089477229,0.082697153,0.016891086
1/2/2004,0.017212526,0.528789155,0.263444969,0.089408114,0.084178357,0.016966879
1/5/2004,0.017542047,0.526952908,0.262749146,0.089144837,0.086048912,0.017562149
1/6/2004,0.017558928,0.52673308,0.263403054,0.08914151,0.085614378,0.01754905
1/7/2004,0.017705191,0.527202528,0.263633215,0.088645754,0.085383211,0.017430101
1/8/2004,0.017873834,0.526669731,0.263348207,0.08882905,0.085652212,0.017626966
1/9/2004,0.017669499,0.525694414,0.263908651,0.088604403,0.086380918,0.017742115
1/12/2004,0.01788505,0.525730389,0.263816946,0.088625743,0.086213918,0.017727954
1/13/2004,0.017700812,0.525705109,0.264217449,0.088740809,0.086224086,0.017411735
1/14/2004,0.017807908,0.525457403,0.264597182,0.089202327,0.085568199,0.017366981
1/15/2004,0.017808065,0.526459154,0.265122112,0.089129327,0.084685626,0.016795716
1/16/2004,0.018063371,0.526493616,0.264862333,0.088521488,0.08477959,0.017279602
1/20/2004,0.018027295,0.525745923,0.264147259,0.088322697,0.086106243,0.017650582
1/21/2004,0.017955809,0.525742935,0.264421173,0.088497775,0.085817698,0.01756461
1/22/2004,0.01774574,0.52554583,0.264818595,0.08864994,0.085746443,0.017493452
1/23/2004,0.012544125,0.591516394,0.198560844,0.08680253,0.095675527,0.014900581
1/26/2004,0.01272784,0.590679981,0.198058744,0.087819754,0.096065684,0.014647997
1/27/2004,0.012421551,0.590148956,0.198214013,0.088443555,0.096241378,0.014530547
1/28/2004,0.012215773,0.591215602,0.197570532,0.088687927,0.095887486,0.014422681
1/29/2004,0.012302119,0.591617412,0.198353078,0.089215537,0.094260609,0.014251245
1/30/2004,0.012259919,0.591422429,0.198630823,0.08970246,0.093727225,0.014257145
2/2/2004,0.012196048,0.590784882,0.198209935,0.090746477,0.093479848,0.01458281
2/3/2004,0.012221528,0.590843527,0.198521439,0.090459689,0.093529982,0.014423836
2/4/2004,0.012005817,0.59270403,0.198828144,0.08883619,0.093406047,0.014219773
2/5/2004,0.012022954,0.593051278,0.198339005,0.089404558,0.092965985,0.01421622
2/6/2004,0.012246715,0.591034583,0.198259901,0.090592852,0.093862068,0.01400388
2/9/2004,0.012154587,0.58996867,0.198154872,0.090378798,0.095268612,0.014074461
2/10/2004,0.012219802,0.589544046,0.197660493,0.090912449,0.095386,0.01427721
2/11/2004,0.012305678,0.58842807,0.198013631,0.091149714,0.095812353,0.014290554
2/12/2004,0.012197373,0.588811029,0.197687079,0.090123101,0.096812033,0.014369385
2/13/2004,0.01205607,0.588697309,0.197980052,0.089366927,0.097366565,0.014533077
2/17/2004,0.012217171,0.588012968,0.197725801,0.089440712,0.097965266,0.014638083
2/18/2004,0.012221581,0.588553899,0.197678179,0.089151168,0.097839541,0.014555632
2/19/2004,0.012058245,0.588915438,0.198093632,0.089252037,0.097070646,0.014610002
2/20/2004,0.012049947,0.589659398,0.197926818,0.089322127,0.096557318,0.014484392
2/23/2004,0.011902864,0.589693238,0.198386662,0.089320035,0.096154467,0.014542733
2/24/2004,0.011880711,0.590131886,0.198436424,0.089431546,0.095488542,0.014630893
2/25/2004,0.011923392,0.589571874,0.198176826,0.090034387,0.095405805,0.014887716
2/26/2004,0.011980705,0.589443548,0.197991416,0.089870908,0.095748682,0.014964741
2/27/2004,0.011900039,0.588537359,0.198084415,0.089812752,0.096573104,0.01509233
3/1/2004,0.01202455,0.586594713,0.197595282,0.090646326,0.097850169,0.015288959
3/2/2004,0.011896049,0.585837544,0.197250598,0.09133265,0.098500793,0.015182365
3/3/2004,0.011867649,0.586069178,0.197623141,0.092053283,0.097532216,0.014854534
3/4/2004,0.011964743,0.585404242,0.197466214,0.092218797,0.097933132,0.015012872
3/5/2004,0.011848965,0.584387317,0.198208608,0.092356656,0.098111092,0.015087362
3/8/2004,0.011579758,0.585329924,0.198478369,0.092172089,0.097623904,0.014815956
3/9/2004,0.011545761,0.585496317,0.198731743,0.09211053,0.097371829,0.014743821
3/10/2004,0.011420312,0.587366717,0.199296283,0.091297416,0.095870133,0.014749139
3/11/2004,0.011316175,0.589076267,0.199581985,0.090325484,0.094616389,0.0150837
3/12/2004,0.011541087,0.588903562,0.199290893,0.091322626,0.094035145,0.014906688
3/15/2004,0.01129784,0.589609432,0.199474569,0.090683163,0.093634547,0.015300448
3/16/2004,0.011349198,0.588797849,0.200025503,0.09086496,0.093644595,0.015317894
3/17/2004,0.011483408,0.587268857,0.199345322,0.091963614,0.094404347,0.015534452
3/18/2004,0.011386906,0.586773551,0.198752516,0.092326329,0.095270983,0.015489715
3/19/2004,0.011234862,0.586485383,0.198566003,0.092481273,0.09573227,0.015500209
3/22/2004,0,0.59903071,0.201083258,0.087905224,0.096890939,0.01508987
3/23/2004,0,0.599070556,0.201151339,0.088384308,0.096243752,0.015150045
3/24/2004,0,0.599937964,0.201204255,0.087616959,0.096220528,0.015020294
3/25/2004,0,0.599995314,0.200928396,0.088659961,0.095786832,0.014629498
3/26/2004,0,0.600112935,0.200570592,0.087892239,0.09668464,0.014739593
3/29/2004,0,0.598408744,0.200386444,0.0884585,0.098057517,0.014688795
3/30/2004,0,0.597543112,0.199862709,0.089061668,0.09854067,0.014991841
3/31/2004,0,0.596383557,0.199819483,0.089484794,0.099425222,0.014886944
4/1/2004,0,0.59574722,0.199323071,0.090265442,0.100066389,0.014597879
4/2/2004,0,0.59646679,0.198255542,0.089797823,0.100858276,0.014621568
4/5/2004,0,0.598271113,0.198532207,0.086543571,0.102014435,0.014638673
4/6/2004,0,0.599907362,0.199447453,0.082998912,0.102796868,0.014849406
4/7/2004,0,0.598895718,0.199005148,0.084144839,0.102854909,0.015099387
4/8/2004,0,0.599736929,0.199070833,0.082633317,0.103209116,0.015349803
4/13/2004,0,0.656763667,0.220463117,0,0.106229025,0.016544191
4/14/2004,0,0.657742675,0.220624701,0,0.105000194,0.01663243
4/15/2004,0,0.658593278,0.22051312,0,0.104191624,0.016701978
4/16/2004,0,0.658703217,0.220817091,0,0.103827626,0.016652066
4/19/2004,0,0.659011632,0.220715867,0,0.103688869,0.016583632
4/20/2004,0,0.658944721,0.22059017,0,0.10394276,0.016522349
4/21/2004,0,0.659936397,0.220797175,0,0.10302746,0.016238969
4/22/2004,0,0.660167092,0.221258423,0,0.102085143,0.016489343
4/23/2004,0,0.660046455,0.220341597,0,0.103222752,0.016389196
4/26/2004,0.016162182,0.566504948,0.184344535,0.092773562,0.147932541,-0.007717767
4/27/2004,0.016149672,0.566496599,0.184606496,0.093598643,0.1469824,-0.007833809
4/28/2004,0.015924754,0.568723032,0.184836055,0.093347265,0.14500357,-0.007834676
4/29/2004,0.015784843,0.572498798,0.185374493,0.092568731,0.141677111,-0.007903976
4/30/2004,0.015500089,0.574435593,0.186245939,0.092374323,0.139395018,-0.007950962
5/4/2004,0.015667815,0.572413013,0.185255311,0.094092933,0.140796595,-0.008225668
5/5/2004,0.015763,0.573559537,0.185162522,0.093221085,0.140598336,-0.008304481
5/6/2004,0.015669547,0.575167766,0.185278431,0.093468796,0.138699783,-0.008284322
5/7/2004,0.015684976,0.578615429,0.185172111,0.090871529,0.138076541,-0.008420585
5/10/2004,0.018968195,0.664859269,0.216349695,0.108880536,0,-0.009057695
5/11/2004,0.019278896,0.663926516,0.216387774,0.109631423,0,-0.009224608
5/12/2004,0.019193941,0.663946114,0.216455165,0.109729009,0,-0.00932423
5/13/2004,0.019235846,0.664226247,0.216035793,0.109880036,0,-0.009377922
5/14/2004,0.018958294,0.663212514,0.216296784,0.11087581,0,-0.009343403
5/17/2004,0.018631485,0.662737458,0.216579686,0.111368071,0,-0.009316699
5/18/2004,0.018839335,0.661027877,0.215947019,0.113319915,0,-0.009134145
5/19/2004,0.018903893,0.663108293,0.216281497,0.111130752,0,-0.009424435
5/20/2004,0.018843766,0.661096358,0.216261819,0.113046332,0,-0.009248275
5/21/2004,0.018990859,0.661376379,0.215819808,0.112949242,0,-0.009136289
5/24/2004,0.0190573,0.66035757,0.215974094,0.11406216,0,-0.009451124
5/25/2004,0.019439836,0.658572183,0.21535227,0.115963256,0,-0.009327544
5/26/2004,0.019463496,0.657235671,0.215292252,0.117261336,0,-0.009252754
5/27/2004,0.019537946,0.65634151,0.215629835,0.117530376,0,-0.009039668
5/28/2004,0.019586817,0.655497472,0.215193854,0.118805333,0,-0.009083476
6/1/2004,0.019683225,0.656549027,0.215417021,0.11788476,0,-0.009534033
6/2/2004,0.019592787,0.655338872,0.214784131,0.119445494,0,-0.009161284
6/3/2004,0.019350175,0.655810961,0.215157517,0.118687593,0,-0.009006245
6/4/2004,0.019492548,0.655643716,0.214790528,0.118960967,0,-0.00888776
6/7/2004,0.019955253,0.654326887,0.214865741,0.119758433,0,-0.008906314
6/8/2004,0.020014961,0.654321719,0.214877153,0.119506283,0,-0.008720116
6/9/2004,0.019706272,0.654912179,0.214939819,0.119200723,0,-0.008758993
6/10/2004,0.019878355,0.654908176,0.215194489,0.118869136,0,-0.008850155
6/14/2004,0.01966764,0.656537433,0.215311656,0.117292167,0,-0.008808896
6/15/2004,0.019817594,0.654156173,0.215902416,0.118809929,0,-0.008686112
6/16/2004,0.019844376,0.653923825,0.215673732,0.119317404,0,-0.008759336
6/17/2004,0.019625639,0.653151603,0.216089172,0.120089416,0,-0.00895583
6/18/2004,0.019599984,0.653301048,0.215618094,0.120427523,0,-0.008946649
6/21/2004,0.019412163,0.652365955,0.215455006,0.121529901,0,-0.008763026
6/22/2004,0.01970395,0.652305972,0.215422162,0.121380477,0,-0.008812561
6/23/2004,0.019926199,0.651544958,0.215280821,0.122016391,0,-0.008768368
6/24/2004,0.019836078,0.65189916,0.215570382,0.121540883,0,-0.008846503
6/25/2004,0.019936103,0.651372416,0.215275026,0.12218265,0,-0.008766194
6/28/2004,0.019887301,0.651201066,0.214598905,0.122835799,0,-0.00852307
6/29/2004,0.020092348,0.652616221,0.21546222,0.120275864,0,-0.008446653
6/30/2004,0.020157087,0.65156045,0.215546758,0.121327354,0,-0.008591649
7/1/2004,0.0198018,0.651274396,0.216208292,0.121544527,0,-0.008829015
7/2/2004,0.019586398,0.649774537,0.216086043,0.123304832,0,-0.008751811
7/6/2004,0.019133026,0.650651485,0.216258846,0.122918255,0,-0.008961612
7/7/2004,0.01918869,0.649807772,0.215877966,0.124011404,0,-0.008885831
7/8/2004,0.018940135,0.651377767,0.216380308,0.122302778,0,-0.009000988
7/9/2004,0.019058924,0.650983528,0.216496555,0.12239861,0,-0.008937616
7/12/2004,0.018919071,0.650330699,0.216333436,0.123238853,0,-0.008822058
7/13/2004,0.018912582,0.651148335,0.216363884,0.122371355,0,-0.008796156
7/14/2004,0.018739637,0.650884613,0.216265364,0.123122372,0,-0.009011986
7/15/2004,0.018719389,0.6500225,0.21606631,0.124127154,0,-0.008935353
7/16/2004,0.018362591,0.650184834,0.216781919,0.123620205,0,-0.008949549
7/19/2004,0.018403929,0.649472513,0.216570325,0.124497179,0,-0.008943947
7/20/2004,0.018721989,0.649550376,0.215737297,0.12479569,0,-0.008805352
7/21/2004,0.018324467,0.650346591,0.216212277,0.12394154,0,-0.008824875
7/22/2004,0.018647156,0.652164714,0.21686155,0.121315597,0,-0.008989017
7/23/2004,0.018236727,0.652784333,0.217501379,0.120525094,0,-0.009047532
7/26/2004,0.018170798,0.653516608,0.217563897,0.119732268,0,-0.008983571
7/27/2004,0.018499391,0.653714148,0.216692139,0.120128199,0,-0.009033877
7/28/2004,-0.027985727,0.418760711,0.231106102,0.245079758,0.100750778,0.032288378
7/29/2004,-0.028283253,0.419263287,0.231344296,0.244940277,0.10054107,0.032194322
7/30/2004,-0.02818962,0.417743737,0.231335461,0.245651243,0.10105346,0.032405719
8/2/2004,-0.028212661,0.416319444,0.230751273,0.248827179,0.100175232,0.032139533
8/3/2004,-0.0276038,0.415653127,0.230573096,0.248968109,0.100183253,0.032226215
8/4/2004,-0.027549305,0.415453698,0.230082717,0.250848466,0.099700326,0.031464098
8/5/2004,-0.027068706,0.416757215,0.230710984,0.246781571,0.100605638,0.032213298
8/6/2004,-0.026234823,0.417043758,0.23210971,0.245486208,0.099762725,0.031832423
8/9/2004,-0.02628053,0.416846067,0.231689069,0.245578584,0.099950548,0.032216263
8/10/2004,-0.026825866,0.416944489,0.231143638,0.246603834,0.100089999,0.032043905
8/11/2004,-0.026414782,0.416889358,0.231611697,0.246613982,0.099288165,0.032011579
8/12/2004,-0.026033681,0.417750376,0.232114388,0.244170674,0.099703929,0.032294314
8/13/2004,-0.026048593,0.417626956,0.232101422,0.243678096,0.099783916,0.032858203
8/16/2004,-0.026358106,0.416371828,0.231206093,0.246640409,0.099617367,0.032522409
8/17/2004,-0.026441978,0.414890062,0.230962268,0.248200878,0.099710953,0.032677818
8/18/2004,-0.026904848,0.413767595,0.230083883,0.250665565,0.099817047,0.032570757
8/19/2004,-0.026747466,0.414488184,0.23072375,0.246758403,0.101455582,0.033321547
8/20/2004,-0.026828075,0.411970122,0.228978271,0.252365114,0.100796832,0.032717736
8/23/2004,-0.026964594,0.412001783,0.229123457,0.252560677,0.100861739,0.032416938
8/24/2004,-0.026853467,0.410699115,0.228404373,0.255254352,0.100609721,0.031885906
8/25/2004,-0.027285563,0.411783254,0.229032402,0.254123086,0.101265657,0.031081164
8/26/2004,-0.027120423,0.411039256,0.228834382,0.254682146,0.101886497,0.030678141
8/27/2004,-0.027195424,0.411109599,0.228725035,0.254795346,0.10195508,0.030610362
8/31/2004,-0.026656244,0.409607297,0.228513103,0.256626121,0.101772421,0.030137301
9/1/2004,-0.026810293,0.409331246,0.22837135,0.255663756,0.102511673,0.030932269
9/2/2004,-0.027185041,0.408855745,0.227621778,0.25700422,0.102919989,0.030783308
9/3/2004,-0.02669102,0.408250297,0.226887854,0.258663709,0.102323818,0.030565342
9/7/2004,-0.026813749,0.406670474,0.22685961,0.260441641,0.102622031,0.030219994
9/8/2004,-0.026698723,0.406593434,0.227577861,0.259818482,0.102717701,0.029991245
9/9/2004,-0.027066425,0.408832334,0.227979353,0.256124825,0.103211513,0.0309184
9/10/2004,-0.027452168,0.409014315,0.227943836,0.256336743,0.104060184,0.03009709
9/13/2004,-0.0277592,0.409259235,0.22843372,0.254300786,0.105037877,0.030727582
9/14/2004,-0.027955548,0.41026115,0.229233046,0.251372769,0.10603699,0.031051594
9/15/2004,-0.027556101,0.410041987,0.228743219,0.252613168,0.105550179,0.030607548
9/16/2004,-0.027430399,0.407379403,0.228188311,0.25554079,0.105828009,0.030493887
9/17/2004,-0.027600743,0.407958865,0.227671939,0.254689799,0.105982363,0.031297777
9/20/2004,-0.027593752,0.408474635,0.228589389,0.252239831,0.106722719,0.031567177
9/21/2004,-0.027744609,0.407696102,0.228166978,0.252602101,0.10717379,0.032105638
9/22/2004,-0.027143386,0.40838138,0.228714963,0.250886233,0.10634681,0.032814
9/23/2004,-0.027210388,0.409292004,0.228603829,0.250039115,0.106351346,0.032924095
9/24/2004,-0.027068618,0.409147659,0.228439206,0.250493384,0.106127032,0.032861338
9/27/2004,-0.026792478,0.409281892,0.228664754,0.250184427,0.105565787,0.033095617
9/28/2004,-0.026820737,0.408568038,0.228105677,0.251126953,0.105685136,0.033334933
9/29/2004,-0.027244009,0.408418611,0.227584682,0.251637732,0.106039267,0.033563716
9/30/2004,-0.027215617,0.407450405,0.226895395,0.253001821,0.106338602,0.033529393
10/1/2004,-0.027857,0.405353967,0.225324151,0.256315742,0.107323928,0.033539211
10/4/2004,-0.02790692,0.403886435,0.225018429,0.256457213,0.109288025,0.033256819
10/5/2004,-0.027931305,0.403609761,0.224874461,0.256377799,0.109146111,0.033923173
10/6/2004,-0.028129481,0.403260706,0.224112384,0.257522492,0.109016882,0.034217018
10/7/2004,-0.027852886,0.404324301,0.224587373,0.254673845,0.109580031,0.034687335
10/8/2004,-0.027241641,0.40314892,0.224655676,0.255492424,0.109097307,0.034847314
10/12/2004,-0.027318083,0.404074773,0.225019722,0.256992541,0.10685809,0.034372958
10/13/2004,-0.027353949,0.40471658,0.225703876,0.256189532,0.106058893,0.034685068
10/14/2004,-0.027085906,0.403854207,0.225509862,0.257731433,0.10501402,0.034976385
10/15/2004,-0.027146907,0.403179154,0.22475498,0.259027558,0.105248086,0.034937128
10/18/2004,-0.027615857,0.402850711,0.224621793,0.260473118,0.105324719,0.034345515
10/19/2004,-0.027395094,0.403142164,0.225003209,0.258743,0.105967185,0.034539537
10/20/2004,-0.027567492,0.404122362,0.225535336,0.257903156,0.104632692,0.035373947
10/21/2004,-0.027891619,0.402698582,0.224679073,0.260261188,0.104836775,0.035416
10/22/2004,-0.027212511,0.402800588,0.225022967,0.258159345,0.105408348,0.035821263
10/25/2004,-0.027145622,0.404120468,0.225514655,0.257269171,0.104713425,0.035527903
10/26/2004,-0.027199814,0.40227947,0.224384804,0.260032726,0.104586997,0.035915817
10/27/2004,-0.027909537,0.402202846,0.223645183,0.262042295,0.105443829,0.034575385
10/28/2004,0.061387142,0.462585854,0.22211878,0.105826794,0.098622367,0.049459063
10/29/2004,0.061307681,0.462345171,0.222437503,0.105212048,0.098897927,0.04979967
11/1/2004,0.061386677,0.46228209,0.221920373,0.106564758,0.099220815,0.048625288
11/2/2004,0.061704547,0.462111017,0.222356203,0.105570704,0.099983639,0.04827389
11/3/2004,0.061827308,0.460431855,0.22162564,0.106198515,0.100976362,0.04894032
11/4/2004,0.062229728,0.46053015,0.221297379,0.107522441,0.100994234,0.047426068
11/5/2004,0.062820453,0.461414223,0.221020889,0.104872713,0.102120183,0.04775154
11/8/2004,0.06293031,0.461563708,0.221004633,0.105525773,0.10164161,0.047333967
11/9/2004,0.062922685,0.462130949,0.220974574,0.105709297,0.101937538,0.046324957
11/10/2004,0.062400039,0.461612103,0.220278047,0.106112473,0.102286412,0.047310926
11/12/2004,0.063637236,0.459504549,0.219289415,0.108899492,0.102808359,0.045860949
11/15/2004,0.06362923,0.458612031,0.21897317,0.109713746,0.103418344,0.045653478
11/16/2004,0.063260218,0.459851003,0.219337232,0.108965194,0.103378266,0.045208087
11/17/2004,0.06406659,0.458994817,0.219588148,0.106483706,0.104781611,0.046085128
11/18/2004,0.064444128,0.458831864,0.219792796,0.106456636,0.104876562,0.045598014
11/19/2004,0.063398093,0.460098606,0.21961152,0.105303179,0.104511418,0.047077184
11/22/2004,0.06400212,0.460253874,0.219774286,0.105911483,0.10350625,0.046551987
11/23/2004,0.063638679,0.459557184,0.219243762,0.106856257,0.103934067,0.04677005
11/24/2004,0.064184345,0.457890649,0.218248299,0.107812954,0.104331575,0.047532178
11/26/2004,0.064014288,0.458227332,0.217953969,0.107360928,0.104992924,0.047450558
11/29/2004,0.064163725,0.458122104,0.21751617,0.107227348,0.1057767,0.047193953
11/30/2004,0.063777342,0.458264447,0.21736538,0.107710429,0.106335315,0.046547086
12/1/2004,0.065107801,0.457725174,0.216944403,0.109659659,0.106294856,0.044268107
12/2/2004,0.064581271,0.486655373,0.233676185,0.111333231,0.10375394,0
12/3/2004,0.064375036,0.48561863,0.234100486,0.112706045,0.103199803,0
12/6/2004,0.064460743,0.48521596,0.234100854,0.113043934,0.103178509,0
12/7/2004,0.063446615,0.487226337,0.234977754,0.111498661,0.102850633,0
12/8/2004,0.063902823,0.487122586,0.235671423,0.111984993,0.101318175,0
12/9/2004,0.064174333,0.487379915,0.235211252,0.112764304,0.100470197,0
12/10/2004,0.063973028,0.487404758,0.235236352,0.113581302,0.09980456,0
12/13/2004,0.064515416,0.486997546,0.234963071,0.113160127,0.10036384,0
12/14/2004,0.06468973,0.486446982,0.234868109,0.112742657,0.101252521,0
12/15/2004,0.064365117,0.485637586,0.234744157,0.11298859,0.102264549,0
12/16/2004,0.063914642,0.48659112,0.234469438,0.112000313,0.103024486,0
12/17/2004,0.063491575,0.486058125,0.23432517,0.113187105,0.102938025,0
12/20/2004,0.063242552,0.486038347,0.234184371,0.112910606,0.103624124,0
12/21/2004,0.06377618,0.484699436,0.23395375,0.113685953,0.103884681,0
12/22/2004,0.063896616,0.484335511,0.233598133,0.114283902,0.103885839,0
12/23/2004,0.063917243,0.484956261,0.233549783,0.113232216,0.104344497,0
12/29/2004,0.064345891,0.483450576,0.232725263,0.113935432,0.105542839,0
12/30/2004,0.064197633,0.482863525,0.232910792,0.114167038,0.105861012,0
12/31/2004,0.064039266,0.482497645,0.23316779,0.113871679,0.106423621,0
1/4/2005,0.062486553,0.486313262,0.234156287,0.111742079,0.105301819,0
1/5/2005,0.062541301,0.48931074,0.235613118,0.108135377,0.104399464,0
1/6/2005,0.062305448,0.489907506,0.235817313,0.108937521,0.103032212,0
1/7/2005,0.062561119,0.489839326,0.235627774,0.108856642,0.103115138,0
1/10/2005,0.062558616,0.48997683,0.235715035,0.108467109,0.10328241,0
1/11/2005,0.062154553,0.490554041,0.236279634,0.107253495,0.103758277,0
1/12/2005,0.062612963,0.490598142,0.236346944,0.106646248,0.103795703,0
1/13/2005,0.061706283,0.490475619,0.236551632,0.107056447,0.104210019,0
1/14/2005,0.062227124,0.489500464,0.235806756,0.107818727,0.104646929,0
1/18/2005,0.06256884,0.488602856,0.235488219,0.108929284,0.1044108,0
1/19/2005,0.061472005,0.48893719,0.235709101,0.109249056,0.104632648,0
1/20/2005,0.060409903,0.490064425,0.236729345,0.108807199,0.103989129,0
1/21/2005,0.059945126,0.490106917,0.236914363,0.108860713,0.104172881,0
1/24/2005,0.05908134,0.490901575,0.237301116,0.108077672,0.104638297,0
1/25/2005,0.05960083,0.492071078,0.237276818,0.106085062,0.104966211,0
1/26/2005,0.060239251,0.491113853,0.236839246,0.106029398,0.105778252,0
1/27/2005,0.060259178,0.491544229,0.237070901,0.104997425,0.106128266,0
1/28/2005,0.059828863,0.491329461,0.237198964,0.105335776,0.106306935,0
1/31/2005,0.06051159,0.490355277,0.236857284,0.104880199,0.10739565,0
2/1/2005,0.060616791,0.490072646,0.236609238,0.105494204,0.107207122,0
2/2/2005,0.060575248,0.489371895,0.236243359,0.106459384,0.107350114,0
2/3/2005,0.038036403,0.622063222,0.217681003,0.066852434,0.067825601,-0.012458662
2/4/2005,0.038548922,0.62047558,0.217673492,0.067718169,0.067975669,-0.012391832
2/7/2005,0.03839883,0.620334443,0.217880374,0.067383154,0.068175807,-0.012172608
2/8/2005,0.038486256,0.620256574,0.217949383,0.067602183,0.067938547,-0.012232942
2/9/2005,0.037806393,0.619937582,0.218314036,0.068005037,0.068205319,-0.012268367
2/10/2005,0.037839517,0.620374966,0.217821732,0.068341904,0.068208495,-0.012586615
2/11/2005,0.038395341,0.619684209,0.217392487,0.068655421,0.068438799,-0.012566257
2/14/2005,0.038564618,0.618661786,0.217442209,0.068646035,0.069285608,-0.012600256
2/15/2005,0.038781054,0.618233244,0.217212502,0.068904627,0.069473421,-0.012604848
2/16/2005,0.038666378,0.618526581,0.216847881,0.069248981,0.069454593,-0.012744415
2/17/2005,0.038102055,0.618789364,0.216842178,0.069240318,0.069674271,-0.012648187
2/18/2005,0.038091456,0.619069648,0.21672558,0.06875287,0.070160056,-0.01279961
2/22/2005,0.037656427,0.620407592,0.217173557,0.067128608,0.071001312,-0.013367496
2/23/2005,0.037713127,0.620723256,0.217228667,0.066854683,0.070894148,-0.013413881
2/24/2005,0.038210703,0.619915589,0.216976018,0.06670509,0.071622629,-0.013430029
2/25/2005,0.038366346,0.618690174,0.216613229,0.067812428,0.072010696,-0.013492873
2/28/2005,0.038004428,0.619184632,0.216133156,0.067358485,0.07294113,-0.01362183
3/1/2005,0.038397835,0.618497242,0.215937007,0.068060439,0.072696346,-0.013588869
3/2/2005,0.038420192,0.619254948,0.216374183,0.067814289,0.072017779,-0.013881392
3/3/2005,0.038066013,0.619303173,0.21626157,0.068154412,0.072194253,-0.013979422
3/4/2005,0.038141955,0.618069426,0.216203927,0.069200097,0.072324103,-0.013939508
3/7/2005,0.038677466,0.617356992,0.215935636,0.069487885,0.072453478,-0.013911458
3/8/2005,0.038343177,0.618380324,0.21576917,0.069135054,0.072538656,-0.01416638
3/9/2005,0.038326472,0.62034095,0.215437649,0.06730706,0.072882571,-0.014294702
3/10/2005,0.038360029,0.6199434,0.215708833,0.067940321,0.072136417,-0.014088999
3/11/2005,0.03795034,0.621107168,0.215420981,0.067150864,0.072661133,-0.014290486
3/14/2005,0.038178553,0.620786735,0.215547979,0.068179792,0.071676063,-0.014369121
3/15/2005,0.037888135,0.622505279,0.215545933,0.068027266,0.070514495,-0.014481109
3/16/2005,0.03752918,0.623546374,0.215908568,0.067345016,0.070412494,-0.014741632
3/17/2005,0.037518815,0.62314399,0.216047216,0.067916721,0.070091595,-0.014718337
3/18/2005,0.037478355,0.623538375,0.215993321,0.067580093,0.070162307,-0.014752451
3/21/2005,0.037537901,0.624047083,0.216160123,0.067285649,0.069743676,-0.014774433
3/22/2005,0.03711977,0.625926945,0.215729215,0.066279319,0.069567678,-0.014622926
3/23/2005,0.037348374,0.626560687,0.215950286,0.066013278,0.068433981,-0.014306607
3/24/2005,0.037272972,0.626702689,0.215975651,0.066246763,0.068222078,-0.014420153
3/29/2005,0.037159984,0.627721502,0.21619649,0.065971888,0.067330494,-0.014380357
3/30/2005,0.037751261,0.626646534,0.215964416,0.066670671,0.067343601,-0.014376484
3/31/2005,0.037442915,0.62654351,0.216078891,0.066371527,0.068266578,-0.014703419
4/1/2005,0.037067159,0.626309503,0.216293136,0.066244759,0.069075737,-0.014990294
4/4/2005,0.037264136,0.626854555,0.216361819,0.066021396,0.068413776,-0.014915682
4/5/2005,0.037443226,0.626569393,0.21624296,0.065992658,0.068493421,-0.014741658
4/6/2005,0.037320188,0.626043154,0.216294694,0.066260318,0.068731321,-0.014649675
4/7/2005,0.037712014,0.625479244,0.215539717,0.066702914,0.068832668,-0.014266557
4/8/2005,0.037394503,0.625905033,0.215578348,0.06630143,0.068877214,-0.014056528
4/11/2005,0.03720372,0.625997186,0.215800515,0.066431986,0.068687018,-0.014120424
4/12/2005,0.03737482,0.624807198,0.216062933,0.067237032,0.068355812,-0.013837795
4/13/2005,0.036673507,0.625078725,0.216030637,0.067195263,0.06856217,-0.013540302
4/14/2005,0.036237583,0.626591647,0.21663591,0.066887613,0.067339654,-0.013692408
4/15/2005,0.035415847,0.62766363,0.217252672,0.066821829,0.066407491,-0.01356147
4/18/2005,0.040803956,0.667324937,0.233519611,0.071716659,0,-0.013365163
4/19/2005,0.041067291,0.666776647,0.233858814,0.07205821,0,-0.013760963
4/20/2005,0.040688176,0.667499803,0.233982003,0.071727477,0,-0.013897458
4/21/2005,0.041821797,0.666934665,0.233091576,0.072086541,0,-0.013934578
4/22/2005,0.041069308,0.667053079,0.233587467,0.072423672,0,-0.014133526
4/25/2005,0.041448091,0.666164472,0.233180979,0.073219856,0,-0.014013398
4/26/2005,0.040970603,0.666613401,0.23314291,0.07322435,0,-0.013951264
4/27/2005,0.040981334,0.665829177,0.232909574,0.073727946,0,-0.013448031
4/28/2005,0.040548603,0.666201852,0.233418643,0.073279507,0,-0.013448606
4/29/2005,0.04081297,0.665319065,0.232712227,0.074270968,0,-0.01311523
5/3/2005,0.040989294,0.66544893,0.232628559,0.073905078,0,-0.012971861
5/4/2005,0.04164508,0.664314067,0.23263702,0.074462846,0,-0.013059013
5/5/2005,0.041539821,0.663936335,0.232699065,0.074929659,0,-0.01310488
5/6/2005,0.041793582,0.664818264,0.232135674,0.074365445,0,-0.013112965
5/9/2005,0.035000824,0.660873378,0.17121703,0.048449254,0.0864371,-0.001977585
5/10/2005,0.034678228,0.6614857,0.17153409,0.048347734,0.085943399,-0.001989151
5/11/2005,0.034878165,0.661884247,0.171500641,0.048406165,0.085281995,-0.001951212
5/12/2005,0.034792747,0.662443364,0.17184102,0.047993875,0.084833543,-0.00190455
5/13/2005,0.035163685,0.662738333,0.17202199,0.047583789,0.084388008,-0.001895805
5/16/2005,0.035390074,0.662125883,0.171985084,0.048138461,0.084245251,-0.001884752
5/17/2005,0.035595432,0.661915425,0.171929122,0.04838732,0.084072246,-0.001899544
5/18/2005,0.035954895,0.660683302,0.171832062,0.048806821,0.084590758,-0.001867839
5/19/2005,0.036193985,0.659654161,0.171393431,0.049323098,0.085295981,-0.001860657
5/20/2005,0.036365501,0.65950189,0.171371812,0.049513938,0.085105297,-0.001858438
5/23/2005,0.036506553,0.659328528,0.171714028,0.049515608,0.084807928,-0.001872646
5/24/2005,0.036593402,0.65965684,0.171757681,0.048836642,0.085036654,-0.00188122
5/25/2005,0.036426142,0.660758207,0.171703306,0.048204359,0.084822764,-0.001914777
5/26/2005,0.036803595,0.660436777,0.171692353,0.048036711,0.084947005,-0.001916442
5/27/2005,0.036782815,0.659477204,0.171582478,0.048258157,0.085828639,-0.001929293
5/31/2005,0.036563752,0.659550986,0.171929035,0.048535522,0.085348272,-0.001927566
6/1/2005,0.036862969,0.659021328,0.172192993,0.049041805,0.084878301,-0.001997396
6/2/2005,0.037050091,0.658443606,0.172107317,0.048839842,0.085539277,-0.001980134
6/3/2005,0.036490632,0.658771317,0.171676189,0.048811235,0.086272401,-0.002021775
6/6/2005,0.036485618,0.658482855,0.171705196,0.049229737,0.086118671,-0.002022077
6/7/2005,0.036103808,0.658669634,0.171847833,0.049589632,0.085791513,-0.002002421
6/8/2005,0.035992392,0.658734675,0.171466361,0.049774502,0.085999284,-0.001967214
6/9/2005,0.036281077,0.65904704,0.171351945,0.04978315,0.085548427,-0.002011639
6/10/2005,0.0358731,0.659184459,0.170938093,0.049807512,0.086186586,-0.00198975
6/13/2005,0.036067465,0.658855606,0.170778687,0.050055383,0.086283486,-0.002040627
6/14/2005,0.035951368,0.658505811,0.170544552,0.050530529,0.086491663,-0.002023924
6/15/2005,0.036071913,0.657641686,0.17061397,0.050534883,0.087178272,-0.002040725
6/16/2005,0.036258804,0.656746377,0.170916694,0.050578629,0.087564116,-0.002064619
6/17/2005,0.036215393,0.65599795,0.17062496,0.051093423,0.088172174,-0.0021039
6/20/2005,0.036196802,0.656303669,0.170568736,0.0509836,0.088070209,-0.002123017
6/21/2005,0.03614831,0.65697945,0.170807273,0.050457522,0.087700911,-0.002093465
6/22/2005,0.03599837,0.656531145,0.171045302,0.050288097,0.088203861,-0.002066775
6/23/2005,0.035581617,0.657315654,0.171024386,0.050224336,0.087952924,-0.002098917
6/24/2005,0.035223809,0.657980162,0.171383832,0.050001732,0.087515206,-0.002104742
6/27/2005,0.035056523,0.65841737,0.171452142,0.049908907,0.087277702,-0.002112644
6/28/2005,0.035413686,0.65783589,0.171119284,0.050237243,0.087447577,-0.002053679
6/29/2005,0.035307123,0.658150539,0.170985548,0.050367907,0.087220181,-0.002031297
6/30/2005,0.035026839,0.658361568,0.171141584,0.050382773,0.087100341,-0.002013106
7/1/2005,0.034967513,0.658099305,0.170555288,0.050861833,0.087587144,-0.002071084
7/5/2005,0.035397836,0.657764596,0.170452747,0.05153676,0.086964716,-0.002116656
7/6/2005,0.035206375,0.657618326,0.170734097,0.05127523,0.087333992,-0.00216802
7/7/2005,0.03529805,0.657862662,0.170750092,0.051454967,0.086779915,-0.002145686
7/8/2005,0.035929251,0.657044517,0.170104034,0.052158974,0.086878114,-0.00211489
7/11/2005,0.036196674,0.654993635,0.169921826,0.052724653,0.088252085,-0.002088873
7/12/2005,0.036348729,0.654168093,0.169522787,0.052698359,0.089396753,-0.002134721
7/13/2005,0.03641769,0.654137703,0.169548798,0.052382482,0.089635407,-0.00212208
7/14/2005,0.036786086,0.654070529,0.169494107,0.051457742,0.090265598,-0.002074063
7/15/2005,0.03690965,0.654167787,0.169652618,0.05176306,0.089592319,-0.002085435
7/18/2005,0.036716799,0.654400392,0.169361991,0.051848556,0.089732943,-0.00206068
7/19/2005,0.03714605,0.65336488,0.169357683,0.052183796,0.090004845,-0.002057254
7/20/2005,0.037379832,0.652466751,0.169310291,0.052578102,0.090304694,-0.002039669
7/21/2005,0.037381766,0.653146454,0.168665861,0.051840677,0.090976852,-0.00201161
7/22/2005,0.037266849,0.652771757,0.168648363,0.052153821,0.091202308,-0.002043098
7/25/2005,0.037101234,0.652936022,0.168541506,0.052314133,0.091154036,-0.002046931
7/26/2005,0.037247231,0.652784428,0.168700204,0.052809652,0.090516494,-0.002058008
7/27/2005,0.03752257,0.652272287,0.168453878,0.052934641,0.090880899,-0.002064275
7/28/2005,0.037598926,0.650782922,0.168563811,0.053490634,0.091646879,-0.002083172
7/29/2005,0.03731407,0.651075893,0.168187934,0.053472391,0.092051643,-0.002101931
8/1/2005,0.037451588,0.650323756,0.168057084,0.053514721,0.09279145,-0.002138599
8/2/2005,0.037794215,0.648902721,0.167743455,0.053889277,0.093822702,-0.00215237
8/3/2005,0.037760139,0.648587155,0.167846957,0.053650803,0.094279663,-0.002124718
8/4/2005,0.037392812,0.649539064,0.168001221,0.052708253,0.094502043,-0.002143393
8/5/2005,0.037362758,0.651271352,0.16806369,0.051083824,0.094392166,-0.00217379
8/8/2005,0.049790163,0.542457234,0.153189193,0.067414251,0.181044793,0.006104366
8/9/2005,0.050071562,0.541669041,0.153156713,0.067917267,0.181151329,0.006034087
8/10/2005,0.049505903,0.54070326,0.152978464,0.06812706,0.18250493,0.006180384
8/11/2005,0.049886508,0.53947428,0.153125087,0.068788383,0.182459724,0.006266019
8/12/2005,0.049562213,0.540125632,0.153494398,0.068862597,0.181648606,0.006306554
8/15/2005,0.049798771,0.539980046,0.153167886,0.069406202,0.181388708,0.006258387
8/16/2005,0.048997206,0.5407408,0.153588485,0.06978779,0.180616828,0.006268892
8/17/2005,0.049298334,0.54173622,0.153429764,0.069275908,0.180189296,0.006070479
8/18/2005,0.049193802,0.543419622,0.154143658,0.068921552,0.178288062,0.006033304
8/19/2005,0.049192556,0.544202949,0.154358483,0.068727213,0.177345635,0.006173165
8/22/2005,0.049126673,0.542395744,0.154012615,0.068975337,0.179297218,0.006192413
8/23/2005,0.049011146,0.542941193,0.154226619,0.069077799,0.178539741,0.006203503
8/24/2005,0.048759034,0.543926977,0.15444967,0.069397194,0.177140115,0.00632701
8/25/2005,0.048829281,0.543572818,0.154423142,0.069592515,0.17725991,0.006322335
8/26/2005,0.048684073,0.544435785,0.154451733,0.068832508,0.177339111,0.00625679
8/30/2005,0.048872182,0.544599797,0.155014132,0.068846135,0.175974952,0.006692802
8/31/2005,0.049116676,0.542842141,0.154711755,0.069949867,0.176754753,0.006624808
9/1/2005,0.048748051,0.541403923,0.154141382,0.069996191,0.178974445,0.006736008
9/2/2005,0.048530268,0.540787604,0.153759712,0.0696789,0.180707823,0.006535693
9/6/2005,0.049155551,0.539202503,0.153106228,0.071117951,0.181001647,0.00641612
9/7/2005,0.049266066,0.539341603,0.152840274,0.070678645,0.181605964,0.006267449
9/8/2005,0.049173857,0.539391338,0.152777315,0.070469812,0.181926291,0.006261387
9/9/2005,0.049393653,0.538431606,0.15260398,0.070625997,0.182736668,0.006208096
9/12/2005,0.049566774,0.53780556,0.152533249,0.070465764,0.183526175,0.006102479
9/13/2005,0.049452999,0.538562703,0.152864354,0.070042536,0.182986362,0.006091045
9/14/2005,0.048908098,0.538639638,0.152719701,0.069904616,0.183587667,0.00624028
9/15/2005,0.04884918,0.538313413,0.152373068,0.070097527,0.184156923,0.006209888
9/16/2005,0.049176811,0.537836109,0.152026072,0.070085242,0.184811233,0.006064534
9/19/2005,0.048723174,0.537949094,0.152068033,0.069417987,0.185384239,0.006457472
9/20/2005,0.048459807,0.537717873,0.151960858,0.068933363,0.186577255,0.006350846
9/21/2005,0.047952895,0.538260912,0.152286561,0.067498279,0.187593174,0.006408179
9/22/2005,0.048156372,0.538912138,0.152473882,0.067765044,0.186252708,0.006439856
9/23/2005,0.048399751,0.539644545,0.152389444,0.068043387,0.185246851,0.006276022
9/26/2005,0.048406837,0.538295229,0.152089464,0.068303193,0.186473456,0.006431821
9/27/2005,0.048271403,0.538023734,0.151991399,0.068142876,0.187161159,0.006409429
9/28/2005,0.048263914,0.537448842,0.152203557,0.067635667,0.187865019,0.006583001
9/29/2005,0.048784134,0.535607228,0.151641694,0.068483879,0.188910578,0.006572487
9/30/2005,0.049016509,0.534334769,0.150969819,0.069157383,0.190022005,0.006499516
10/3/2005,0.049153789,0.534086658,0.150692095,0.069456424,0.190142964,0.006468069
10/4/2005,0.048904555,0.534404434,0.150939221,0.068345217,0.191017761,0.006388812
10/5/2005,0.048380883,0.53744346,0.151745059,0.067398765,0.188694003,0.006337831
10/6/2005,0.048053981,0.540511285,0.152536364,0.067604372,0.185096205,0.006197794
10/7/2005,0.04816881,0.540470154,0.15267654,0.067095167,0.185375188,0.006214141
10/11/2005,0.047638339,0.539999489,0.152529068,0.065743266,0.187761481,0.006328357
10/12/2005,0.047313904,0.542499529,0.152932307,0.064964083,0.18590237,0.006387806
10/13/2005,0.047936177,0.544558289,0.153430444,0.065224793,0.182529316,0.006320982
10/14/2005,0.048241202,0.544282631,0.153263707,0.066688881,0.181267894,0.006255685
10/17/2005,0.048356475,0.543263568,0.153136883,0.066905672,0.181946419,0.006390984
10/18/2005,0.048108616,0.544806707,0.15360666,0.066336677,0.180869185,0.006272154
10/19/2005,0.04911147,0.546269918,0.153842175,0.067298456,0.177260039,0.006217942
10/20/2005,0.050095967,0.545788929,0.154130059,0.0678283,0.182156744,0
10/21/2005,0.050258585,0.544898679,0.154154819,0.068402614,0.182285303,0
10/24/2005,0.050888417,0.543222024,0.153306285,0.069455574,0.1831277,0
10/25/2005,0.050833564,0.54330535,0.153194625,0.06917814,0.183488322,0
10/26/2005,0.050566085,0.543328866,0.152843863,0.068679797,0.184581389,0
10/27/2005,0.04972668,0.545507409,0.153635638,0.068131381,0.182998892,0
10/28/2005,0.050086232,0.544680874,0.153312592,0.069917874,0.182002428,0
10/31/2005,0.050556528,0.542033435,0.152674381,0.070102031,0.184633626,0
11/1/2005,0.05045288,0.541244759,0.152491122,0.068518003,0.187293236,0
11/2/2005,0.050952628,0.539264907,0.151780027,0.068914365,0.189088074,0
11/3/2005,0.051595846,0.538439326,0.151260506,0.068463476,0.190240846,0
11/4/2005,0.051935696,0.538380608,0.151400944,0.068357563,0.189925189,0
11/7/2005,0.05195562,0.538094541,0.151515616,0.068711825,0.189722398,0
11/8/2005,0.112894764,0.360070381,0.197121658,0.091481392,0.233407036,0.005024769
11/9/2005,0.112789059,0.359113091,0.196134202,0.092335001,0.234648827,0.00497982
11/10/2005,0.113712185,0.357611827,0.195947633,0.093855665,0.234001381,0.00487131
11/14/2005,0.113466215,0.357194047,0.195014905,0.093837486,0.235613177,0.004874171
11/15/2005,0.113035645,0.35795254,0.195552937,0.093688025,0.234944447,0.004826406
11/16/2005,0.113228498,0.357620885,0.19566512,0.093080321,0.235506921,0.004898255
11/17/2005,0.114280436,0.355736197,0.194888767,0.093904942,0.236394358,0.004795299
11/18/2005,0.114438413,0.354729774,0.194403903,0.094403371,0.237270725,0.004753814
11/21/2005,0.114610292,0.354460362,0.194416223,0.09464282,0.237114501,0.004755802
11/22/2005,0.115152497,0.354509731,0.194820048,0.095631728,0.235069599,0.004816397
11/23/2005,0.114834242,0.353150156,0.193608168,0.095720518,0.237920239,0.004766676
11/25/2005,0.114802786,0.352982102,0.193466195,0.095617384,0.238387355,0.004744178
11/28/2005,0.113859886,0.353488963,0.194034803,0.094771197,0.239165785,0.004679367
11/29/2005,0.113584667,0.353966696,0.19379101,0.095287158,0.238708455,0.004662013
11/30/2005,0.113256544,0.354113035,0.193522628,0.094863244,0.239491202,0.004753346
12/1/2005,0.114810165,0.352642478,0.192323973,0.095533026,0.239853344,0.004837014
12/2/2005,0.114840536,0.351620899,0.191880049,0.09510684,0.241627443,0.004924233
12/5/2005,0.114010697,0.351523537,0.191845902,0.094493821,0.243172614,0.00495343
12/6/2005,0.114123048,0.350880913,0.191943005,0.093939042,0.244203427,0.004910566
12/7/2005,0.113886669,0.351002241,0.191880721,0.093464332,0.2448746,0.004891437
12/8/2005,0.113183289,0.351516793,0.19255183,0.09420754,0.243494397,0.00504615
12/9/2005,0.113758266,0.351131138,0.192128503,0.094695598,0.243332342,0.004954153
12/12/2005,0.113916655,0.35042444,0.191721418,0.094316433,0.244559932,0.005061121
12/13/2005,0.114124987,0.349707385,0.191453437,0.094668836,0.244940758,0.005104598
12/14/2005,0.113538129,0.349757147,0.19197791,0.094768734,0.244922305,0.005035775
12/15/2005,0.113854135,0.3504263,0.192101827,0.094147569,0.244523449,0.00494672
12/16/2005,0.113062268,0.350707816,0.192459076,0.094416804,0.244507135,0.004846902
12/19/2005,0.111541385,0.351170524,0.19275097,0.093430935,0.246279672,0.004826514
12/20/2005,0.111630973,0.3512774,0.192656252,0.093375195,0.246226804,0.004833376
12/21/2005,0.111715149,0.350046502,0.192018175,0.093811275,0.247550814,0.004858085
12/22/2005,0.112315334,0.349357821,0.192057212,0.094126343,0.247371497,0.004771793
12/23/2005,0.112069152,0.348723131,0.192162787,0.094285486,0.248032342,0.004727102
12/28/2005,0.111110134,0.34985572,0.192499577,0.094065123,0.247720988,0.004748458
12/29/2005,0.110262367,0.349514507,0.192399775,0.093430181,0.249642726,0.004750444
12/30/2005,0.109709088,0.350254107,0.192488029,0.093237003,0.249504601,0.004807173
1/3/2006,0.110913795,0.346901551,0.190944227,0.094253119,0.252154042,0.004833265
1/4/2006,0.111138618,0.345258235,0.189771793,0.09397341,0.255055424,0.004802519
1/5/2006,0.111444457,0.344543114,0.189305272,0.094634104,0.255354386,0.004718667
1/6/2006,0.112781215,0.342793197,0.1882075,0.095112836,0.256347822,0.00475743
1/9/2006,0.112818796,0.341446262,0.187644129,0.095476921,0.257930175,0.004683717
1/10/2006,0.113029653,0.341554316,0.187327542,0.096358808,0.257063144,0.004666537
1/11/2006,0.113751654,0.34068408,0.186783593,0.096049968,0.258076758,0.004653947
1/12/2006,0.112885351,0.340664903,0.187000052,0.09568824,0.259125051,0.004636402
1/13/2006,0.112960907,0.34105856,0.187717997,0.094449921,0.259167257,0.004645357
1/17/2006,0.112505961,0.342156778,0.18826383,0.094430466,0.257854488,0.004788477
1/18/2006,0.11188045,0.344193105,0.189349289,0.094881544,0.254945365,0.004750247
1/19/2006,0.11203549,0.341332013,0.187902446,0.095565963,0.258382411,0.004781678
1/20/2006,0.108979571,0.342672898,0.188920701,0.09480936,0.2597268,0.00489067
1/23/2006,0.108958712,0.342749487,0.189010336,0.095479947,0.258955065,0.004846453
1/24/2006,0.109098799,0.341310546,0.187913554,0.095700078,0.26118876,0.004788263
1/25/2006,0.108417736,0.340603166,0.187063974,0.095557722,0.263636512,0.00472089
1/26/2006,0.109146331,0.339663504,0.186468263,0.095826218,0.264169323,0.004726362
1/27/2006,0.109929953,0.337744464,0.185735721,0.096592957,0.265219941,0.004776965
1/30/2006,0.110145823,0.33793232,0.185714378,0.096314999,0.265030547,0.004861933
1/31/2006,0.109734306,0.337255546,0.185390612,0.096504241,0.266292577,0.004822719
2/1/2006,0.109796532,0.336827163,0.184919141,0.096841982,0.266887362,0.00472782
2/2/2006,0.108580015,0.338507322,0.185903102,0.096646805,0.265708408,0.004654349
2/3/2006,0.107831391,0.340657076,0.187234202,0.096143466,0.263404037,0.004729828
2/6/2006,0.106926241,0.33935547,0.186477259,0.09620791,0.266372362,0.004660759
2/7/2006,0.106954493,0.340449396,0.187053355,0.095758318,0.265228993,0.004555445
2/8/2006,0.108529185,0.341772629,0.187506417,0.095746646,0.261906781,0.004538343
2/9/2006,0.107200878,0.341330611,0.187228329,0.095821488,0.263900448,0.004518245
2/10/2006,0.113464899,0.361888789,0.198117151,0.091943386,0.234585776,0
2/13/2006,0.062270984,0.526550379,0.217188063,0.07563075,0.129744035,-0.011384212
2/14/2006,0.062799655,0.525953848,0.216668309,0.075975335,0.129803804,-0.01120095
2/15/2006,0.063126259,0.525203983,0.216494515,0.076515314,0.129661085,-0.011001156
2/16/2006,0.063540173,0.524206876,0.216095782,0.076867159,0.130371123,-0.011081113
2/17/2006,0.062857057,0.523370948,0.216109087,0.077191212,0.131702834,-0.011231139
2/21/2006,0.062105645,0.523659829,0.215942523,0.077425727,0.132338848,-0.011472572
2/22/2006,0.062802344,0.522909841,0.215884531,0.078091635,0.131510419,-0.011198771
2/23/2006,0.062634907,0.522313889,0.215722165,0.077972233,0.132548197,-0.01119139
2/24/2006,0.062850252,0.522042699,0.216015001,0.077657051,0.132869644,-0.011434648
2/27/2006,0.063478586,0.520970089,0.215623947,0.077616961,0.133407288,-0.011096871
2/28/2006,0.062637031,0.522439898,0.216465499,0.077443191,0.132235281,-0.011220898
3/1/2006,0.06343831,0.52143669,0.215718196,0.077775971,0.132904221,-0.011273389
3/2/2006,0.063464597,0.521238901,0.215398644,0.077613758,0.133800483,-0.011516383
3/3/2006,0.063265282,0.522419644,0.215555902,0.077436073,0.132940521,-0.011617422
3/6/2006,0.062707044,0.52235929,0.215026354,0.078845721,0.132418459,-0.011356868
3/7/2006,0.062697768,0.525043814,0.216160992,0.078322904,0.129034342,-0.01125982
3/8/2006,0.06271735,0.525663981,0.216363188,0.078756194,0.127600679,-0.011101394
3/9/2006,0.062110851,0.525596205,0.21640285,0.079459342,0.127629457,-0.011198705
3/10/2006,0.062207686,0.524639024,0.216127623,0.080158583,0.128006357,-0.011139273
3/13/2006,0.0623868,0.523832492,0.215894379,0.079671737,0.129589578,-0.011374987
3/14/2006,0.063220788,0.522801912,0.216131387,0.079978131,0.129439037,-0.011571256
3/15/2006,0.063535082,0.520771419,0.215218545,0.08111026,0.130775684,-0.011410989
3/16/2006,0.062811956,0.520083146,0.215590026,0.081725411,0.131297936,-0.011508475
3/17/2006,0.062981451,0.519208116,0.215085909,0.082362667,0.131765364,-0.011403507
3/20/2006,0.063111886,0.51942001,0.215368548,0.081077208,0.132152347,-0.011129998
3/21/2006,0.062735426,0.521305923,0.215571957,0.080368758,0.131266643,-0.011248707
3/22/2006,0.062884683,0.52161506,0.215744308,0.080627445,0.130285879,-0.011157375
3/23/2006,0.062685286,0.521787404,0.215492936,0.080828671,0.130652558,-0.011446856
3/24/2006,0.062945931,0.521474932,0.215876551,0.080430985,0.13075346,-0.011481859
3/27/2006,0.062962385,0.521799425,0.215665588,0.079663055,0.131372353,-0.011462806
3/28/2006,0.062843024,0.522019958,0.215493249,0.0807547,0.130610063,-0.011720995
3/29/2006,0.063878115,0.520305526,0.214813586,0.082252986,0.130527381,-0.011777594
3/30/2006,0.064049962,0.520074833,0.214347718,0.080990855,0.132438957,-0.011902325
3/31/2006,0.063793664,0.519726892,0.214196618,0.081077544,0.132966634,-0.011761352
4/3/2006,0.063940006,0.51888339,0.214161208,0.079503092,0.13535409,-0.011841785
4/4/2006,0.064219695,0.518388327,0.214002926,0.078801217,0.136310513,-0.011722678
4/5/2006,0.064670767,0.517482413,0.213881606,0.079210379,0.136593861,-0.011839026
4/6/2006,0.064926042,0.51725745,0.213490088,0.078806993,0.137490036,-0.011970608
4/7/2006,0.064509428,0.51873409,0.213461005,0.077831205,0.137363296,-0.011899023
4/10/2006,0.064467464,0.519572146,0.213892642,0.077149989,0.137062001,-0.012144244
4/11/2006,0.063971775,0.520329852,0.214387812,0.076897991,0.13663981,-0.01222724
4/12/2006,0.064043054,0.520899068,0.214206649,0.077000378,0.136117346,-0.012266495
4/13/2006,0.064465362,0.521180503,0.214148617,0.07622645,0.136379443,-0.012400374
4/18/2006,0.064579714,0.517776165,0.213685661,0.077275789,0.139487808,-0.012805137
4/19/2006,0.064649418,0.516780284,0.212639144,0.078041175,0.140788023,-0.012898044
4/20/2006,0.064431868,0.51683245,0.21247484,0.078045966,0.14098197,-0.012767094
4/21/2006,0.063680347,0.516805883,0.212737724,0.078138436,0.14161609,-0.012978479
4/24/2006,0.06359996,0.517138164,0.213164815,0.077643738,0.141168599,-0.012715276
4/25/2006,0.06359753,0.517871651,0.213029509,0.077388435,0.14084511,-0.012732236
4/26/2006,0.063591916,0.517274554,0.212595905,0.076973964,0.142189016,-0.012625354
4/27/2006,0.064091876,0.516787572,0.212808393,0.077496946,0.141157895,-0.012342683
4/28/2006,0.063394943,0.517202119,0.21291021,0.077591684,0.141330592,-0.012429548
5/2/2006,0.063005873,0.517396415,0.212534039,0.075971453,0.143895775,-0.012803556
5/3/2006,0.062848047,0.517075289,0.21212361,0.076023236,0.144421011,-0.012491194
5/4/2006,0.063252187,0.515676787,0.211626169,0.07688558,0.144829958,-0.012270681
5/5/2006,0.063524236,0.514439165,0.211406738,0.077607857,0.145326659,-0.012304655
5/8/2006,0.063456506,0.513040784,0.210999947,0.077810024,0.146897235,-0.012204496
5/9/2006,0.063346973,0.513152839,0.211117146,0.077824641,0.146946985,-0.012388584
5/10/2006,0.062829323,0.513657514,0.211414894,0.077944069,0.146841418,-0.012687219
5/11/2006,0.061735925,0.515852917,0.212254081,0.076554314,0.146554804,-0.012952042
5/12/2006,0.061218087,0.518447792,0.212794011,0.075852184,0.144482006,-0.012794079
5/15/2006,0.061405731,0.521248598,0.213963317,0.077133382,0.138644036,-0.012395064
5/16/2006,0.060974557,0.522061447,0.214437261,0.076791164,0.13815017,-0.012414599
5/17/2006,0.073428077,0.606492772,0.124282182,0.076639857,0.142859084,-0.023701973
5/18/2006,0.073176934,0.609916498,0.125217911,0.076500694,0.139070333,-0.023882371
5/19/2006,0.073746815,0.61008367,0.125174898,0.076466535,0.138033724,-0.023505641
5/22/2006,0.073453636,0.615539175,0.126068077,0.076541085,0.132312118,-0.023914091
5/23/2006,0.072690786,0.615483043,0.12587206,0.075910238,0.13455539,-0.024511517
5/24/2006,0.073258863,0.616238527,0.126104578,0.076123703,0.132060016,-0.023785687
5/25/2006,0.073979859,0.614743761,0.125620566,0.077611802,0.132155024,-0.024111013
5/26/2006,0.073980147,0.612078869,0.125254686,0.077989103,0.134837922,-0.024140726
5/30/2006,0.07271875,0.614814002,0.125751396,0.077695615,0.133365978,-0.024345741
5/31/2006,0.073161193,0.61524808,0.125643066,0.077766574,0.1323248,-0.024143712
6/1/2006,0.074673774,0.612558006,0.125418045,0.079113926,0.132157797,-0.023921548
6/2/2006,0.074159037,0.610872518,0.125598829,0.079540834,0.134185486,-0.024356705
6/5/2006,0.072707971,0.612654753,0.125803418,0.080022877,0.133211472,-0.024400491
6/6/2006,0.07293051,0.614246162,0.126423134,0.079702875,0.131028808,-0.024331488
6/7/2006,0.085666284,0.707576503,0.144996208,0.08941337,0,-0.027652365
6/8/2006,0.085307593,0.708087709,0.144945849,0.088996309,0,-0.027337459
6/9/2006,0.084678726,0.708429128,0.144937248,0.089602659,0,-0.027647762
6/12/2006,0.08316586,0.710388345,0.145252564,0.088574953,0,-0.027381722
6/13/2006,0.082879374,0.710822202,0.145242403,0.08767497,0,-0.026618949
6/14/2006,0.083665784,0.711147805,0.144731247,0.087245694,0,-0.02679053
6/15/2006,0.085769426,0.70877783,0.144062798,0.088488545,0,-0.027098598
6/16/2006,0.085298567,0.709260782,0.144044658,0.088564755,0,-0.027168763
6/19/2006,0.084680089,0.709803413,0.144234029,0.088105521,0,-0.026823052
6/20/2006,0.08477686,0.709935683,0.144368358,0.087697614,0,-0.026778515
6/21/2006,0.085983721,0.708527718,0.144094708,0.088475757,0,-0.027081903
6/22/2006,0.085148848,0.709917887,0.144157418,0.088062272,0,-0.027286425
6/23/2006,0.085067058,0.710401992,0.144108512,0.08766151,0,-0.027239072
6/26/2006,0.085315947,0.709674957,0.144034168,0.088483038,0,-0.027508109
6/27/2006,0.083836988,0.710880144,0.144513875,0.088368457,0,-0.027599464
6/28/2006,0.084357636,0.71023581,0.144135695,0.088843851,0,-0.027572992
6/29/2006,0.086502198,0.707398084,0.143842504,0.09018909,0,-0.027931877
6/30/2006,0.085866919,0.706918904,0.144198762,0.09108765,0,-0.028072236
7/3/2006,0.08639507,0.705428699,0.144060151,0.092220589,0,-0.02810451
7/5/2006,0.08488702,0.707017531,0.144027459,0.092481054,0,-0.028413063
7/6/2006,0.084705386,0.706890745,0.14423175,0.09267759,0,-0.028505471
7/7/2006,0.08368223,0.70771428,0.144562581,0.092174246,0,-0.028133337
7/10/2006,0.082963233,0.707206551,0.144613763,0.093128071,0,-0.027911618
7/11/2006,0.083484123,0.707106385,0.144559488,0.093034164,0,-0.02818416
7/12/2006,0.081877664,0.708307593,0.144813478,0.093501948,0,-0.028500683
7/13/2006,0.080720054,0.710761491,0.145218908,0.092384011,0,-0.029084463
7/14/2006,0.07987089,0.712866007,0.145355941,0.091198183,0,-0.029291021
7/17/2006,0.080143306,0.712084994,0.145224366,0.091070196,0,-0.028522861
7/18/2006,0.080244171,0.711129754,0.144628736,0.092009164,0,-0.028011824
7/19/2006,0.080933241,0.708739754,0.144671213,0.093455416,0,-0.027799625
7/20/2006,0.079733564,0.710208973,0.145140568,0.092619729,0,-0.027702835
7/21/2006,0.079049379,0.712182087,0.145307208,0.091213031,0,-0.027751705
7/24/2006,0.080483848,0.709945822,0.145006148,0.092547382,0,-0.0279832
7/25/2006,0.08080885,0.709120536,0.144760581,0.092973656,0,-0.027663624
7/26/2006,0.080691967,0.708858925,0.144978,0.093314188,0,-0.02784308
7/27/2006,0.080206691,0.709863846,0.145058875,0.092979555,0,-0.028108968
7/28/2006,0.081588794,0.707192729,0.144951723,0.093980308,0,-0.027713555
7/31/2006,0.081622183,0.708047,0.145194848,0.09354368,0,-0.028407712
8/1/2006,0.080425002,0.709190803,0.145523751,0.093330729,0,-0.028470285
8/2/2006,0.081185938,0.708945206,0.145543248,0.093181608,0,-0.028856
8/3/2006,0.081611824,0.707462977,0.145362465,0.093980645,0,-0.028417911
8/4/2006,0.081032653,0.706589911,0.145395254,0.095234855,0,-0.028252673
8/7/2006,0.080607531,0.708231793,0.145464929,0.094384584,0,-0.028688836
8/8/2006,0.080249273,0.709545365,0.145805832,0.092990479,0,-0.028590949
8/9/2006,0.08036904,0.709821043,0.145925738,0.092637671,0,-0.028753492
8/10/2006,0.080867854,0.708801285,0.145752543,0.092564407,0,-0.027986089
8/11/2006,0.080463755,0.709821884,0.145710207,0.091967156,0,-0.027963002
8/14/2006,0.080800451,0.708417733,0.145388464,0.092868787,0,-0.027475434
8/15/2006,0.082570078,0.705971223,0.145279628,0.093454868,0,-0.027275796
8/16/2006,-0.004885341,0.407803236,0.15109594,0.173558405,0.226470571,0.045957189
8/17/2006,-0.004894555,0.407969065,0.15105136,0.17366975,0.227275277,0.044929103
8/18/2006,-0.00490722,0.40831936,0.1514085,0.174255233,0.225627177,0.04529695
8/21/2006,-0.004854948,0.408666515,0.151419171,0.175072763,0.223908977,0.045787522
8/22/2006,-0.004843663,0.407937752,0.150894451,0.175853547,0.224366593,0.04579132
8/23/2006,-0.004823349,0.409559344,0.151499935,0.175037674,0.22338962,0.045336776
8/24/2006,-0.004837757,0.409795628,0.151543881,0.17592564,0.221893575,0.045679032
8/25/2006,-0.004838811,0.41024926,0.151445751,0.175424069,0.221908816,0.045810916
8/29/2006,-0.004879671,0.409326266,0.151263557,0.177127399,0.22297582,0.044186628
8/30/2006,-0.004885604,0.408448934,0.150810135,0.177915305,0.223751551,0.043959679
8/31/2006,-0.004878859,0.40911021,0.151076282,0.177897041,0.222677048,0.044118278
9/1/2006,-0.004908858,0.409187794,0.1511793,0.176829607,0.224241765,0.043470392
9/5/2006,-0.004934672,0.406987849,0.150430193,0.177855639,0.226500504,0.043160487
9/6/2006,-0.004855388,0.408352754,0.150901607,0.177764742,0.224873787,0.042962499
9/7/2006,-0.004853116,0.410381166,0.151630833,0.177059919,0.222919877,0.04286132
9/8/2006,-0.004878914,0.410004132,0.151668884,0.178521349,0.222525402,0.042159149
9/11/2006,-0.004927952,0.412120839,0.152167946,0.180032311,0.21896723,0.041639626
9/12/2006,-0.005120672,0.427447523,0.158374381,0.181918886,0.237379883,0
9/13/2006,-0.005126377,0.426310397,0.157811917,0.182233619,0.238770444,0
9/14/2006,-0.005134867,0.426587427,0.157696563,0.181392917,0.23945796,0
9/15/2006,-0.005143927,0.42591823,0.157296154,0.182258258,0.239671285,0
9/18/2006,-0.005135414,0.424748919,0.157025777,0.180731924,0.242628795,0
9/19/2006,-0.005089934,0.424105036,0.157252691,0.181776344,0.241955863,0
9/20/2006,-0.005172266,0.425139297,0.157526213,0.181441248,0.241065509,0
9/21/2006,-0.005150758,0.426223693,0.158489608,0.179873399,0.240564058,0
9/22/2006,-0.005113471,0.427762502,0.158891196,0.180798128,0.237661645,0
9/25/2006,-0.005201557,0.428259636,0.159243607,0.180638392,0.237059921,0
9/26/2006,-0.005222738,0.427907176,0.158868009,0.180058767,0.238388785,0
9/27/2006,-0.005191904,0.425937879,0.158217627,0.181116015,0.239920384,0
9/28/2006,-0.005208474,0.425622094,0.157989643,0.180367618,0.24122912,0
9/29/2006,-0.005190762,0.425856773,0.158124426,0.180454682,0.240754881,0
10/2/2006,-0.005119742,0.425408369,0.15816179,0.18006356,0.241486023,0
10/3/2006,-0.005142676,0.425316901,0.158225454,0.181792651,0.239807671,0
10/4/2006,-0.005256777,0.424698423,0.158256424,0.183481688,0.238820242,0
10/5/2006,-0.005259789,0.422786135,0.157292543,0.184194176,0.240986935,0
10/6/2006,-0.005259654,0.423826247,0.157081108,0.183052619,0.241299679,0
10/10/2006,-0.005280455,0.42274842,0.156583054,0.184145992,0.241802989,0
10/11/2006,-0.00528055,0.423156503,0.156521454,0.183630905,0.241971687,0
10/12/2006,-0.005348015,0.422002151,0.156128439,0.184584902,0.242632522,0
10/13/2006,-0.005346127,0.419364897,0.155163402,0.18549478,0.245323048,0
10/16/2006,-0.005334764,0.418167895,0.155040369,0.185893883,0.246232616,0
10/17/2006,-0.005288286,0.419242056,0.155444635,0.185605085,0.24499651,0
10/18/2006,-0.005251372,0.418356312,0.155279241,0.186174227,0.245441591,0
10/19/2006,-0.005270477,0.418282449,0.155213309,0.185802766,0.245971953,0
10/20/2006,-0.005281035,0.418425446,0.155273974,0.185685926,0.245895688,0
10/23/2006,-0.005334934,0.418230372,0.155145051,0.1868034,0.245156111,0
10/24/2006,-0.005295356,0.418307838,0.155103819,0.185892622,0.245991078,0
10/25/2006,-0.005320018,0.417334678,0.155034249,0.186314473,0.246636618,0
10/26/2006,-0.005350231,0.416216938,0.154814371,0.187238055,0.247080867,0
10/27/2006,-0.005274008,0.417110775,0.155309012,0.186048853,0.246805368,0
10/30/2006,-0.005310362,0.417840837,0.155538946,0.187528002,0.244402578,0
10/31/2006,-0.005303478,0.41692801,0.155404604,0.18706458,0.245906284,0
11/1/2006,-0.005218903,0.416722755,0.155514473,0.185139355,0.24784232,0
11/2/2006,-0.005247936,0.418187225,0.155959982,0.182510122,0.248590607,0
11/3/2006,-0.005237141,0.418501486,0.155402855,0.180640613,0.250692186,0
11/6/2006,-0.005309999,0.416894801,0.155154969,0.181779258,0.251480971,0
11/7/2006,-0.005334072,0.417040254,0.155408315,0.179676114,0.253209389,0
11/8/2006,-0.005358774,0.417095294,0.15561044,0.180077367,0.252575673,0
